svm_type c_svc
kernel_type linear
nr_class 2
total_sv 117
rho -1.7015270099656523
label 1 -1
nr_sv 46 71
SV
1.1200796807659379 1:0.0537 2:0.041 3:0.0347 4:0.041 5:0.0443 6:0.0315 7:0.0217 8:0.0369 9:0.1173 10:0.0573 11:0.0356 12:0.034 13:0.0418 14:0.0303 15:0.0334 16:0.0687 17:0.1104 18:0.0436 19:0.0226 20:0.0246 21:0.0528 22:0.0475 23:0.0499 24:0.0743 25:0.0464 26:0.0288 27:0.0172 28:0.0219 29:0.0561 30:0.0549 31:0.048 32:0.0479 33:0.0769 34:0.0449 35:0.0413 36:0.0512 37:0.0583 38:0.0385 39:0.0268 40:0.0426 41:0.1727 42:0.0682 43:0.0474 44:0.0542 45:0.058 46:0.0413 47:0.0351 48:0.0829 49:0.1691 50:0.0739 51:0.0358 52:0.0397 53:0.0664 54:0.0584 55:0.0505 56:0.0756 57:0.0638 58:0.0375 59:0.03 60:0.049 61:0.0772 62:0.0635 63:0.047 64:0.0453 65:0.0692 66:0.0409 67:0.0301 68:0.0482 69:0.0567 70:0.0514 71:0.041 72:0.0399 73:0.1798 74:0.085 75:0.0393 76:0.0529 77:0.0578 78:0.0445 79:0.037 80:0.0614 81:0.1698 82:0.0697 83:0.0538 84:0.0674 85:0.0626 86:0.0388 87:0.028 88:0.0676 89:0.0683 90:0.0401 91:0.0408 92:0.0706 93:0.0784 94:0.0418 95:0.0342 96:0.0407 97:0.0466 98:0.0376 99:0.0269 100:0.0322 101:0.0461 102:0.0418 103:0.0347 104:0.0376 105:0.1128 106:0.0636 107:0.031 108:0.0339 109:0.0432 110:0.0336 111:0.0382 112:0.0604 113:0.1243 114:0.0727 115:0.0421 116:0.0465 117:0.0377 118:0.0246 119:0.0289 120:0.0535 121:0.0496 122:0.0441 123:0.0382 124:0.052 125:0.0552 126:0.0283 127:0.0299 128:0.0278 129:0.0001 130:0.0004 131:0.0032 132:0.0013 133:0 134:0.0001 135:0.0009 136:0 137:0 138:0 139:0 140:0 141:0.0001 142:0 143:0 144:0 145:0 146:0.0017 147:0.0034 148:0.0016 149:0.0001 150:0.0063 151:0.0068 152:0.002 153:0.0007 154:0.009 155:0.0009 156:0 157:0.0035 158:0.0038 159:0 160:0 161:0.0001 162:0.0051 163:0.0033 164:0.0022 165:0.001 166:0.0088 167:0.0044 168:0.0015 169:0.0047 170:0.0064 171:0.0005 172:0.002 173:0.0132 174:0.0021 175:0 176:0.0025 177:0.0009 178:0.0143 179:0.0069 180:0.001 181:0.0021 182:0.0209 183:0.0135 184:0.0007 185:0.0086 186:0.0282 187:0.014 188:0 189:0.0217 190:0.0045 191:0.0019 192:0 193:0.0005 194:0.0101 195:0.0075 196:0.0019 197:0.0035 198:0.0489 199:0.0771 200:0.0013 201:0.0266 202:0.1147 203:0.026 204:0 205:0.084 206:0.0221 207:0 208:0 209:0.0003 210:0.0064 211:0.0048 212:0.0011 213:0.0033 214:0.0196 215:0.0339 216:0.0012 217:0.0128 218:0.0043 219:0 220:0 221:0.0171 222:0.0002 223:0 224:0 225:0.0007 226:0.0073 227:0.0026 228:0.0019 229:0.0008 230:0.0046 231:0.0013 232:0.0019 233:0.0002 234:0 235:0 236:0 237:0.0007 238:0 239:0 240:0 241:0.0005 242:0.0059 243:0.0029 244:0.0012 245:0.0002 246:0.0002 247:0.0003 248:0.0009 249:0 250:0 251:0 252:0 253:0 254:0 255:0 256:0 257:0.0002 258:0.008 259:0.0046 260:0.015 261:0.0005 262:0.0005 263:0 264:0 265:0 266:0 267:0 268:0 269:0 270:0 271:0 272:0 273:0.0002 274:0.014 275:0.035 276:0.0381 277:0.0001 278:0.0033 279:0.0108 280:0.0061 281:0 282:0 283:0 284:0 285:0 286:0 287:0 288:0 289:0 290:0.0036 291:0.019 292:0.0141 293:0 294:0.0001 295:0.0031 296:0.0126 297:0 298:0 299:0 300:0 301:0 302:0 303:0 304:0 305:0 306:0.0001 307:0.0001 308:0.0005 309:0.0001 310:0 311:0 312:0 313:0 314:0 315:0 316:0 317:0 318:0 319:0 320:0 321:0 322:0 323:0 324:0.0009 325:0 326:0 327:0 328:0 329:0 330:0 331:0 332:0 333:0 334:0 335:0 336:0 337:0 338:0 339:0.0001 340:0.0008 341:0 342:0 343:0 344:0 345:0 346:0 347:0 348:0 349:0 350:0 351:0 352:0 353:0 354:0 355:0 356:0.0003 357:0 358:0 359:0 360:0 361:0 362:0 363:0 364:0 365:0 366:0 367:0 368:0 369:0 370:0 371:0.001 372:0.0013 373:0 374:0 375:0 376:0 377:0 378:0 379:0 380:0 381:0 382:0 383:0 384:0 385:0.169 386:-0.0574 387:0.0603 388:0.0446 389:0.0198 390:0.0315 391:-0.0457 392:-0.0184 393:0.0245 394:0.1355 395:-0.0743 396:0.0808 397:0.0378 398:0.022 399:0.0272 400:-0.0217 401:0.0185 402:-0.02 403:0.1509 404:-0.0525 405:0.0683 406:0.0487 407:0.0357 408:0.0473 409:0.0389 410:0.0166 411:-0.0327 412:0.1852 413:-0.0109 414:0.0034 415:0.0305 416:0.0233 417:0.0349 418:-0.0268 419:-0.0331 420:0.0412 421:0.1882 422:-0.0077 423:0.0057 424:0.0265 425:0.0169 426:0.0375 427:-0.0252 428:-0.0197 429:0.0449 430:0.1939 431:-0.0508 432:0.0572 433:0.02 434:0.0171 435:0.0253 436:-0.0187 437:-0.0061 438:0.024 439:0.1386 440:-0.0539 441:0.0626 442:0.0543 443:0.024 444:0.028 445:0.036 446:0.0134 447:0.0232 448:0.1548 449:-0.0316 450:0.0616 451:0.0489 452:0.0296 453:0.0454 454:0.0388 455:-0.0242 456:0.032 457:0.2306 458:-0.0012 459:-0.0175 460:0.0258 461:0.0088 462:0.0144 463:-0.0258 464:-0.0128 465:0.0166 466:0.172 467:-0.0397 468:0.0549 469:0.0316 470:0.0264 471:0.0457 472:-0.0151 473:0.0101 474:-0.0275 475:0.1881 476:-0.0268 477:0.0388 478:0.0291 479:0.0231 480:0.0255 481:-0.0247 482:-0.0131 483:0.0238 484:0.1747 485:-0.0107 486:0.0313 487:0.0461 488:0.0273 489:0.0283 490:-0.0468 491:-0.0302 492:0.0311 493:0.1442 494:-0.0367 495:0.0525 496:0.0474 497:0.0344 498:0.0345 499:0.0123 500:-0.0204 501:0.0238 502:0.1696 503:-0.0371 504:0.0427 505:0.0446 506:0.0248 507:0.0432 508:-0.0098 509:0.0113 510:0.0233 511:0.1645 512:-0.0511 513:0.0673 514:0.0323 515:0.017 516:0.0284 517:-0.031 518:-0.0153 519:0.0243 520:0.1925 521:0.0028 522:0.0175 523:0.0423 524:0.0068 525:0.0274 526:-0.0368 527:0.0072 528:0.0289 529:0.1786 530:0.0014 531:0.0315 532:0.0359 533:0.0069 534:0.0272 535:-0.0285 536:-0.0055 537:0.0317 538:0.1823 539:-0.0039 540:0.0357 541:0.0417 542:0.0171 543:0.0323 544:-0.0329 545:-0.0213 546:0.033 547:0.168 548:-0.0435 549:0.0623 550:0.0359 551:0.0184 552:0.0293 553:-0.0229 554:-0.0066 555:0.016 556:0.1871 557:-0.0472 558:0.0674 559:0.0253 560:0.0203 561:0.0293 562:-0.028 563:0.0072 564:0.0205 565:0.1847 566:0.001 567:0.0314 568:0.0382 569:0.0081 570:0.0291 571:-0.0266 572:-0.0039 573:0.0316 574:0.172 575:-0.0027 576:0.031 577:0.0327 578:0.0078 579:0.0333 580:-0.0192 581:-0.0068 582:0.0352 583:0.187 584:0.0046 585:0.03 586:0.0293 587:0.0059 588:0.0222 589:-0.0239 590:-0.0033 591:0.0274 592:0.1895 593:-0.0297 594:0.0504 595:0.0343 596:0.0323 597:0.0364 598:-0.0272 599:-0.0224 600:0.0269 601:0.1938 602:-0.0549 603:0.0671 604:0.0275 605:0.0164 606:0.0344 607:-0.0256 608:-0.0149 609:0.0182 610:0.0044 611:0.0067 612:0.0014 613:0.021 614:0.0299 615:0.0073 616:0.1022 617:0.1693 618:0.0287 619:0.012 620:0.0144 621:0.0038 622:0.0563 623:0.0872 624:0.0282 625:0.3164 626:0.3163 627:0.0729 628:0.0113 629:0.0048 630:0.0022 631:0.041 632:0.0278 633:0.0192 634:0.1379 635:0.1127 636:0.03 637:0.016 638:0.016 639:0.0067 640:0.0611 641:0.0401 642:0.0388 643:0.1386 644:0.2596 645:0.1261 646:0.009 647:0.0171 648:0.0046 649:0.03 650:0.0796 651:0.0235 652:0.1416 653:0.2701 654:0.0826 655:0.0069 656:0.0146 657:0.0039 658:0.0402 659:0.0902 660:0.0228 661:0.128 662:0.4502 663:0.0717 664:0.0191 665:0.0325 666:0.0112 667:0.066 668:0.1561 669:0.0504 670:0.1121 671:0.2394 672:0.1143 673:0.0188 674:0.0185 675:0.0096 676:0.0863 677:0.07 678:0.0432 679:0.1352 680:0.2257 681:0.079 682:0.0166 683:0.0097 684:0.0033 685:0.0695 686:0.0358 687:0.0173 688:0.1141 689:0.1609 690:0.0314 
0.13393803894480161 1:0.0522 2:0.0426 3:0.0358 4:0.0505 5:0.0452 6:0.0295 7:0.0234 8:0.0353 9:0.1226 10:0.0631 11:0.0355 12:0.0309 13:0.0261 14:0.0263 15:0.0346 16:0.0746 17:0.1195 18:0.0375 19:0.0224 20:0.025 21:0.0503 22:0.0462 23:0.0584 24:0.0922 25:0.0607 26:0.0253 27:0.0155 28:0.0303 29:0.0669 30:0.0559 31:0.0477 32:0.057 33:0.072 34:0.0427 35:0.0332 36:0.0471 37:0.0481 38:0.0381 39:0.0371 40:0.0455 41:0.1939 42:0.0717 43:0.0311 44:0.0256 45:0.0376 46:0.0356 47:0.0372 48:0.0937 49:0.1712 50:0.0619 51:0.0186 52:0.0343 53:0.0778 54:0.0623 55:0.0442 56:0.077 57:0.0765 58:0.0363 59:0.0202 60:0.0422 61:0.0954 62:0.0685 63:0.0405 64:0.0402 65:0.0722 66:0.0371 67:0.0257 68:0.0318 69:0.0431 70:0.0437 71:0.0522 72:0.0487 73:0.1887 74:0.0877 75:0.0304 76:0.0238 77:0.041 78:0.0449 79:0.0478 80:0.0699 81:0.1738 82:0.0766 83:0.0411 84:0.049 85:0.0643 86:0.0462 87:0.0338 88:0.077 89:0.0608 90:0.0412 91:0.0365 92:0.0524 93:0.0856 94:0.0636 95:0.0452 96:0.0401 97:0.053 98:0.0341 99:0.0294 100:0.0249 101:0.0296 102:0.04 103:0.0479 104:0.0419 105:0.1171 106:0.0683 107:0.0381 108:0.0244 109:0.0264 110:0.0353 111:0.0472 112:0.0642 113:0.1213 114:0.0841 115:0.0464 116:0.0354 117:0.0339 118:0.0278 119:0.0331 120:0.0579 121:0.0417 122:0.0468 123:0.0408 124:0.054 125:0.0613 126:0.0385 127:0.028 128:0.0303 129:0 130:0 131:0 132:0 133:0 134:0 135:0 136:0 137:0 138:0 139:0 140:0 141:0 142:0 143:0 144:0 145:0 146:0 147:0 148:0 149:0 150:0 151:0 152:0 153:0 154:0 155:0 156:0 157:0 158:0 159:0 160:0 161:0 162:0 163:0 164:0.0002 165:0 166:0 167:0.0003 168:0.0008 169:0 170:0 171:0.0001 172:0.0016 173:0 174:0.0003 175:0.0016 176:0.0274 177:0 178:0 179:0.0011 180:0.0019 181:0 182:0.0014 183:0.0206 184:0.01 185:0 186:0.0097 187:0.0577 188:0.0135 189:0.0003 190:0.0095 191:0.0164 192:0.0089 193:0 194:0 195:0.0117 196:0.0229 197:0 198:0.0317 199:0.0955 200:0.0072 201:0.0001 202:0.0365 203:0.0079 204:0 205:0.0217 206:0.0109 207:0 208:0 209:0 210:0.0014 211:0.0381 212:0.0365 213:0 214:0.0578 215:0.0901 216:0.0008 217:0.0005 218:0.1623 219:0.0005 220:0 221:0.0489 222:0.0584 223:0 224:0 225:0 226:0.0001 227:0.0127 228:0.0268 229:0 230:0.011 231:0.0148 232:0.0008 233:0.0001 234:0.0021 235:0 236:0 237:0.0003 238:0.001 239:0 240:0 241:0 242:0 243:0.0001 244:0.0035 245:0 246:0.0001 247:0.0014 248:0.0001 249:0 250:0 251:0 252:0 253:0 254:0 255:0 256:0 257:0 258:0 259:0 260:0.0001 261:0 262:0 263:0 264:0 265:0 266:0 267:0 268:0 269:0 270:0 271:0 272:0 273:0 274:0 275:0 276:0 277:0 278:0 279:0 280:0 281:0 282:0 283:0 284:0 285:0 286:0 287:0 288:0 289:0 290:0 291:0 292:0 293:0 294:0 295:0 296:0 297:0 298:0 299:0 300:0 301:0 302:0 303:0 304:0 305:0 306:0 307:0 308:0 309:0 310:0 311:0 312:0 313:0 314:0 315:0 316:0 317:0 318:0 319:0 320:0 321:0 322:0 323:0 324:0 325:0 326:0 327:0 328:0 329:0 330:0 331:0 332:0 333:0 334:0 335:0 336:0 337:0 338:0 339:0 340:0 341:0 342:0 343:0 344:0 345:0 346:0 347:0 348:0 349:0 350:0 351:0 352:0 353:0 354:0 355:0 356:0 357:0 358:0 359:0 360:0 361:0 362:0 363:0 364:0 365:0 366:0 367:0 368:0 369:0 370:0 371:0 372:0 373:0 374:0 375:0 376:0 377:0 378:0 379:0 380:0 381:0 382:0 383:0 384:0 385:0.154 386:-0.0782 387:0.0624 388:0.0235 389:0.0212 390:0.0197 391:0.0106 392:-0.0156 393:0.02 394:0.1438 395:-0.0817 396:0.0705 397:0.0265 398:0.0212 399:0.0277 400:0.0232 401:0.0154 402:0.0216 403:0.1852 404:-0.0612 405:0.1035 406:0.0344 407:0.0179 408:0.0499 409:-0.0189 410:-0.0188 411:0.042 412:0.1816 413:-0.0509 414:0.081 415:0.0264 416:0.0155 417:0.03 418:-0.0249 419:-0.0177 420:0.0209 421:0.1719 422:-0.0587 423:0.0638 424:0.0282 425:0.022 426:0.0345 427:-0.0105 428:-0.0224 429:0.0404 430:0.1581 431:-0.0746 432:0.0594 433:0.0277 434:0.0212 435:0.0221 436:0.0087 437:-0.018 438:0.0238 439:0.1382 440:-0.0879 441:0.069 442:0.0189 443:0.0156 444:0.0224 445:0.0113 446:0.0104 447:0.0224 448:0.1724 449:-0.07 450:0.1027 451:0.042 452:0.0207 453:0.0529 454:0.0314 455:-0.0125 456:0.0509 457:0.1785 458:-0.0627 459:0.0883 460:0.0349 461:0.0212 462:0.0308 463:-0.0227 464:-0.021 465:0.0248 466:0.1723 467:-0.0669 468:0.0608 469:0.026 470:0.0183 471:0.0226 472:-0.0261 473:-0.0211 474:0.0274 475:0.1527 476:-0.0777 477:0.0594 478:0.025 479:0.0209 480:0.0211 481:0.0109 482:-0.0139 483:0.0223 484:0.1504 485:-0.0786 486:0.0664 487:0.0266 488:0.0204 489:0.0245 490:0.0074 491:-0.0136 492:0.0241 493:0.1596 494:-0.0681 495:0.057 496:0.0296 497:0.0254 498:0.0198 499:0.0253 500:0.0136 501:0.0165 502:0.1517 503:-0.0748 504:0.0659 505:0.0307 506:0.0222 507:0.0263 508:0.0203 509:-0.0111 510:0.0228 511:0.1677 512:-0.0706 513:0.058 514:0.0237 515:0.0187 516:0.0179 517:-0.0199 518:-0.0201 519:0.0225 520:0.1402 521:-0.0849 522:0.0638 523:0.0205 524:0.0176 525:0.0215 526:0.0169 527:0.0113 528:0.0205 529:0.172 530:-0.0595 531:0.048 532:0.0382 533:0.0291 534:0.0259 535:0.0259 536:-0.0158 537:0.0231 538:0.2059 539:-0.0314 540:0.0281 541:0.0273 542:0.0155 543:0.0162 544:-0.0275 545:-0.0212 546:0.0151 547:0.1858 548:-0.0451 549:0.0399 550:0.0251 551:0.021 552:0.0192 553:-0.0234 554:-0.0219 555:0.015 556:0.1717 557:-0.0681 558:0.055 559:0.0273 560:0.0192 561:0.018 562:-0.023 563:-0.0214 564:0.0225 565:0.1292 566:-0.0927 567:0.0716 568:0.0132 569:0.0102 570:0.021 571:-0.0088 572:0.004 573:0.0188 574:0.1754 575:-0.0428 576:0.0323 577:0.0254 578:0.0208 579:0.0173 580:-0.008 581:-0.0246 582:0.0199 583:0.2048 584:-0.029 585:0.0226 586:0.0199 587:0.0109 588:0.0131 589:0.0094 590:-0.011 591:0.0115 592:0.2056 593:-0.0275 594:0.0192 595:0.0201 596:0.0069 597:0.008 598:-0.0164 599:-0.0091 600:0.0059 601:0.1525 602:-0.0728 603:0.0529 604:0.0293 605:0.0213 606:0.0218 607:0.0132 608:-0.0117 609:0.0215 610:0.0037 611:0.0074 612:0.0011 613:0.0237 614:0.0289 615:0.0082 616:0.0826 617:0.1531 618:0.0524 619:0.0089 620:0.0065 621:0.0016 622:0.0555 623:0.0413 624:0.0093 625:0.365 626:0.2033 627:0.0432 628:0.0121 629:0.0085 630:0.0027 631:0.0642 632:0.0516 633:0.0157 634:0.357 635:0.2476 636:0.0633 637:0.0038 638:0.0065 639:0.0013 640:0.0238 641:0.0428 642:0.0098 643:0.161 644:0.1399 645:0.0346 646:0.0107 647:0.0084 648:0.0028 649:0.0498 650:0.0524 651:0.015 652:0.393 653:0.266 654:0.0491 655:0.0071 656:0.0071 657:0.0016 658:0.0313 659:0.0395 660:0.0114 661:0.2662 662:0.1324 663:0.0863 664:0.0046 665:0.0076 666:0.0022 667:0.0302 668:0.022 669:0.0103 670:0.0791 671:0.0696 672:0.0201 673:0.0183 674:0.0113 675:0.0055 676:0.0657 677:0.0447 678:0.0153 679:0.2812 680:0.1316 681:0.0667 682:0.0092 683:0.0103 684:0.0042 685:0.0375 686:0.0433 687:0.017 688:0.2423 689:0.1297 690:0.0502 
2.0947194427313485 1:0.0533 2:0.0562 3:0.0475 4:0.0366 5:0.0342 6:0.0265 7:0.0274 8:0.0403 9:0.0938 10:0.0734 11:0.0506 12:0.0382 13:0.0404 14:0.0363 15:0.0381 16:0.0552 17:0.0921 18:0.0465 19:0.0306 20:0.0419 21:0.0511 22:0.0527 23:0.0514 24:0.077 25:0.0433 26:0.0255 27:0.0228 28:0.0463 29:0.0693 30:0.0667 31:0.0471 32:0.0475 33:0.0651 34:0.0491 35:0.0421 36:0.0434 37:0.05 38:0.0396 39:0.0382 40:0.0494 41:0.1608 42:0.0774 43:0.0424 44:0.0481 45:0.0599 46:0.0518 47:0.0357 48:0.0733 49:0.1656 50:0.0734 51:0.0254 52:0.0514 53:0.0798 54:0.0703 55:0.0478 56:0.0825 57:0.0637 58:0.0412 59:0.0252 60:0.0641 61:0.0956 62:0.0822 63:0.0532 64:0.0489 65:0.0653 66:0.0366 67:0.0364 68:0.0456 69:0.0445 70:0.0509 71:0.0478 72:0.0567 73:0.161 74:0.0684 75:0.042 76:0.0475 77:0.0577 78:0.0604 79:0.0548 80:0.0776 81:0.163 82:0.0835 83:0.0595 84:0.0776 85:0.0807 86:0.0442 87:0.0373 88:0.0754 89:0.0641 90:0.0541 91:0.0553 92:0.077 93:0.0857 94:0.0607 95:0.0371 96:0.0402 97:0.048 98:0.0421 99:0.0356 100:0.0334 101:0.0364 102:0.0425 103:0.0392 104:0.0472 105:0.0994 106:0.0582 107:0.0521 108:0.0476 109:0.044 110:0.0343 111:0.0386 112:0.0583 113:0.0918 114:0.0801 115:0.0682 116:0.0571 117:0.0573 118:0.0367 119:0.0324 120:0.0465 121:0.0549 122:0.0567 123:0.0636 124:0.0598 125:0.0552 126:0.0356 127:0.0259 128:0.0319 129:0 130:0.0025 131:0.0039 132:0.0007 133:0 134:0.0007 135:0.0047 136:0.0016 137:0 138:0.0003 139:0 140:0 141:0 142:0 143:0 144:0 145:0.0003 146:0.0143 147:0.0173 148:0.0057 149:0.0015 150:0.0275 151:0.04 152:0.0141 153:0.0017 154:0.0078 155:0.0021 156:0 157:0.0008 158:0.0007 159:0 160:0 161:0.0014 162:0.0275 163:0.017 164:0.0087 165:0.0046 166:0.0545 167:0.0284 168:0.01 169:0.0081 170:0.0194 171:0.0087 172:0.0123 173:0.0138 174:0.0182 175:0.0108 176:0.0127 177:0.0025 178:0.0205 179:0.0119 180:0.0035 181:0.0053 182:0.0279 183:0.0075 184:0.0007 185:0.0044 186:0.0538 187:0.0006 188:0.0003 189:0.0092 190:0.0223 191:0 192:0 193:0.0044 194:0.0164 195:0.0052 196:0.0005 197:0.0037 198:0.0222 199:0.0038 200:0 201:0.007 202:0.1064 203:0 204:0 205:0.0224 206:0.0218 207:0 208:0 209:0.0043 210:0.0125 211:0.0046 212:0.0007 213:0.0038 214:0.0045 215:0.0003 216:0 217:0.0025 218:0.0005 219:0 220:0 221:0.0061 222:0 223:0 224:0 225:0.0029 226:0.0102 227:0.0038 228:0.0008 229:0.003 230:0.0028 231:0.0008 232:0 233:0.0014 234:0.0001 235:0 236:0 237:0.0007 238:0 239:0 240:0 241:0.0021 242:0.0132 243:0.0035 244:0.0012 245:0.0023 246:0.0006 247:0 248:0 249:0.0003 250:0 251:0 252:0 253:0.0005 254:0 255:0 256:0 257:0.0018 258:0.0168 259:0.0088 260:0.0078 261:0.0012 262:0.0021 263:0.0003 264:0 265:0.0001 266:0 267:0 268:0 269:0.0001 270:0 271:0 272:0 273:0.0008 274:0.0096 275:0.0252 276:0.0138 277:0.0005 278:0.0053 279:0.0115 280:0.006 281:0 282:0.0001 283:0.0001 284:0 285:0 286:0 287:0 288:0 289:0.0001 290:0.0021 291:0.0029 292:0.0006 293:0 294:0 295:0 296:0 297:0 298:0 299:0 300:0 301:0 302:0 303:0 304:0 305:0.0001 306:0.0002 307:0.0006 308:0.0002 309:0 310:0 311:0 312:0 313:0 314:0 315:0 316:0 317:0 318:0 319:0 320:0 321:0 322:0.0001 323:0.0006 324:0.0001 325:0 326:0 327:0 328:0 329:0 330:0 331:0 332:0 333:0 334:0 335:0 336:0 337:0.0001 338:0 339:0.0001 340:0.0001 341:0 342:0 343:0 344:0 345:0 346:0 347:0 348:0 349:0 350:0 351:0 352:0 353:0 354:0.0005 355:0.0001 356:0.0003 357:0 358:0 359:0 360:0 361:0 362:0 363:0 364:0 365:0 366:0 367:0 368:0 369:0 370:0.0001 371:0.0003 372:0.0001 373:0 374:0 375:0 376:0 377:0 378:0 379:0 380:0 381:0 382:0 383:0 384:0 385:0.1738 386:-0.0451 387:0.0504 388:0.0234 389:0.0182 390:0.0269 391:-0.0198 392:-0.0152 393:0.0161 394:0.1847 395:-0.0349 396:0.0568 397:0.0263 398:0.0224 399:0.0231 400:0.0223 401:0.0158 402:0.0213 403:0.1855 404:-0.0198 405:0.0594 406:0.0283 407:0.0191 408:0.0284 409:0.0182 410:-0.0163 411:0.0295 412:0.1749 413:-0.0355 414:0.0551 415:0.0346 416:0.0239 417:0.0237 418:-0.0283 419:-0.0195 420:0.0251 421:0.174 422:-0.0337 423:0.0325 424:0.0339 425:0.0181 426:0.0212 427:-0.0294 428:-0.0197 429:0.0222 430:0.1601 431:-0.0517 432:0.0532 433:0.0356 434:0.0186 435:0.0295 436:-0.0383 437:0.0084 438:-0.0176 439:0.1703 440:-0.032 441:0.0356 442:0.044 443:0.0257 444:0.0416 445:-0.0333 446:-0.0185 447:-0.012 448:0.1917 449:-0.0182 450:0.0279 451:0.0365 452:0.0238 453:0.0418 454:0.0199 455:-0.0235 456:0.0248 457:0.1684 458:-0.0516 459:0.0726 460:0.0197 461:0.014 462:0.0207 463:0.0156 464:0.0106 465:0.0184 466:0.1836 467:-0.0369 468:0.0488 469:0.0303 470:0.0235 471:0.0226 472:0.0192 473:-0.0186 474:0.0246 475:0.1681 476:-0.0625 477:0.0859 478:0.014 479:0.0095 480:0.0202 481:-0.0202 482:-0.0094 483:-0.0129 484:0.1836 485:-0.041 486:0.0845 487:0.0384 488:0.0199 489:0.0601 490:0.0116 491:0.008 492:0.042 493:0.184 494:-0.0358 495:0.0888 496:0.0405 497:0.0158 498:0.0549 499:0.0327 500:0.0104 501:0.0543 502:0.173 503:-0.0333 504:0.051 505:0.0344 506:0.0236 507:0.0458 508:0.024 509:-0.0166 510:0.0339 511:0.1769 512:-0.0315 513:0.0455 514:0.0322 515:0.0188 516:0.0279 517:-0.023 518:-0.0214 519:0.0259 520:0.171 521:-0.0483 522:0.0422 523:0.025 524:0.0213 525:0.025 526:-0.0172 527:-0.0191 528:0.027 529:0.1727 530:-0.0367 531:0.0356 532:0.0253 533:0.0172 534:0.0208 535:-0.0237 536:-0.0187 537:0.0216 538:0.1773 539:-0.0072 540:0.0383 541:0.0342 542:0.0133 543:0.0208 544:-0.0224 545:0.0094 546:0.0232 547:0.1787 548:-0.0171 549:0.0532 550:0.0427 551:0.0186 552:0.0554 553:-0.0224 554:-0.0171 555:0.0542 556:0.1949 557:-0.0205 558:0.0378 559:0.044 560:0.0208 561:0.0498 562:-0.0347 563:-0.0238 564:0.0564 565:0.1714 566:-0.046 567:0.0423 568:0.0308 569:0.0242 570:0.029 571:0.0118 572:-0.0209 573:0.03 574:0.1697 575:-0.0395 576:0.0337 577:0.0294 578:0.0184 579:0.0197 580:-0.0273 581:-0.0201 582:0.0218 583:0.1827 584:-0.0168 585:0.0209 586:0.0327 587:0.0178 588:0.0161 589:-0.0293 590:-0.022 591:0.0198 592:0.1913 593:-0.0041 594:0.0088 595:0.0348 596:0.0068 597:0.0181 598:-0.023 599:-0.011 600:0.0094 601:0.1772 602:-0.0191 603:0.0302 604:0.0562 605:0.0223 606:0.0331 607:-0.0278 608:-0.026 609:0.0306 610:0.0154 611:0.007 612:0.0039 613:0.0555 614:0.0232 615:0.0172 616:0.1411 617:0.1064 618:0.0206 619:0.0208 620:0.0116 621:0.0061 622:0.0755 623:0.0502 624:0.0372 625:0.2202 626:0.2941 627:0.0596 628:0.0157 629:0.0186 630:0.0077 631:0.0463 632:0.0417 633:0.032 634:0.093 635:0.229 636:0.0352 637:0.0118 638:0.0069 639:0.0028 640:0.053 641:0.0297 642:0.0153 643:0.123 644:0.0888 645:0.0121 646:0.0262 647:0.0172 648:0.0065 649:0.1357 650:0.0645 651:0.041 652:0.3793 653:0.2077 654:0.1088 655:0.0215 656:0.0227 657:0.0069 658:0.0696 659:0.0786 660:0.0425 661:0.0553 662:0.2472 663:0.1158 664:0.017 665:0.0145 666:0.0094 667:0.0388 668:0.0387 669:0.0262 670:0.0598 671:0.08 672:0.0229 673:0.0211 674:0.0173 675:0.0099 676:0.0456 677:0.0527 678:0.0393 679:0.1511 680:0.1429 681:0.0668 682:0.0276 683:0.0222 684:0.0128 685:0.145 686:0.0903 687:0.0616 688:0.373 689:0.3846 690:0.1158 
4 1:0.0445 2:0.0461 3:0.0494 4:0.0369 5:0.0264 6:0.0215 7:0.0243 8:0.035 9:0.118 10:0.0589 11:0.0472 12:0.0352 13:0.0264 14:0.0235 15:0.0324 16:0.0684 17:0.1164 18:0.0456 19:0.0353 20:0.0321 21:0.0492 22:0.036 23:0.048 24:0.0809 25:0.044 26:0.0269 27:0.0298 28:0.036 29:0.0649 30:0.0526 31:0.0451 32:0.0417 33:0.0731 34:0.0457 35:0.0441 36:0.0401 37:0.0368 38:0.0307 39:0.0269 40:0.0399 41:0.1899 42:0.0695 43:0.0416 44:0.0369 45:0.0342 46:0.0318 47:0.0336 48:0.0858 49:0.1687 50:0.058 51:0.0283 52:0.0419 53:0.0671 54:0.0533 55:0.0487 56:0.0784 57:0.0628 58:0.0291 59:0.0285 60:0.0485 61:0.0819 62:0.058 63:0.0513 64:0.0482 65:0.0808 66:0.0458 67:0.0248 68:0.033 69:0.0403 70:0.0349 71:0.0365 72:0.0449 73:0.1922 74:0.0833 75:0.0294 76:0.0291 77:0.0391 78:0.0368 79:0.0397 80:0.0767 81:0.1635 82:0.0763 83:0.0484 84:0.0565 85:0.0702 86:0.0401 87:0.0333 88:0.0614 89:0.0571 90:0.0482 91:0.0464 92:0.0634 93:0.0805 94:0.0391 95:0.0298 96:0.0316 97:0.0635 98:0.0427 99:0.0266 100:0.0249 101:0.0286 102:0.0286 103:0.0316 104:0.0434 105:0.1375 106:0.0713 107:0.0383 108:0.03 109:0.0302 110:0.0213 111:0.0289 112:0.0681 113:0.1106 114:0.084 115:0.0511 116:0.0442 117:0.0535 118:0.0281 119:0.0273 120:0.0446 121:0.0412 122:0.0449 123:0.0465 124:0.0508 125:0.063 126:0.0316 127:0.0217 128:0.0261 129:0.0001 130:0.0028 131:0.0182 132:0.0073 133:0 134:0.001 135:0.0039 136:0.0015 137:0 138:0 139:0.0003 140:0 141:0 142:0 143:0 144:0 145:0 146:0.0083 147:0.0513 148:0.1132 149:0 150:0.0074 151:0.0321 152:0.0188 153:0.0001 154:0.0031 155:0.002 156:0.0002 157:0 158:0.0001 159:0 160:0 161:0.0001 162:0.0116 163:0.024 164:0.0703 165:0.0006 166:0.0169 167:0.0139 168:0.0043 169:0.0019 170:0.0148 171:0.0043 172:0.0015 173:0.0042 174:0.0046 175:0 176:0 177:0.0003 178:0.0174 179:0.0114 180:0.0179 181:0.002 182:0.0236 183:0.0096 184:0 185:0.0074 186:0.0142 187:0.0001 188:0 189:0.0129 190:0.0013 191:0 192:0 193:0.0007 194:0.0103 195:0.0046 196:0.0085 197:0.003 198:0.0433 199:0.0055 200:0 201:0.0159 202:0.0607 203:0.0006 204:0 205:0.0498 206:0.0025 207:0 208:0 209:0.0005 210:0.0113 211:0.0037 212:0.0019 213:0.0011 214:0.0191 215:0 216:0 217:0.0148 218:0.0229 219:0 220:0 221:0.0282 222:0.0002 223:0 224:0 225:0.0004 226:0.0047 227:0.0029 228:0.0027 229:0 230:0.0054 231:0 232:0 233:0.0002 234:0.0024 235:0 236:0 237:0.0017 238:0.0003 239:0 240:0 241:0.0005 242:0.0019 243:0.0024 244:0.0051 245:0 246:0 247:0 248:0 249:0 250:0 251:0 252:0 253:0 254:0 255:0 256:0 257:0.0002 258:0.0029 259:0.0051 260:0.0222 261:0 262:0 263:0 264:0 265:0 266:0 267:0 268:0 269:0 270:0 271:0 272:0 273:0 274:0.0057 275:0.0102 276:0.0141 277:0 278:0 279:0 280:0 281:0 282:0 283:0 284:0 285:0 286:0 287:0 288:0 289:0.0001 290:0.002 291:0.0049 292:0.0033 293:0 294:0 295:0 296:0 297:0 298:0 299:0 300:0 301:0 302:0 303:0 304:0 305:0 306:0.0013 307:0.0025 308:0.0022 309:0 310:0 311:0 312:0 313:0 314:0 315:0 316:0 317:0 318:0 319:0 320:0 321:0 322:0.0008 323:0.0017 324:0.0003 325:0 326:0 327:0 328:0 329:0 330:0 331:0 332:0 333:0 334:0 335:0 336:0 337:0 338:0.0001 339:0.0029 340:0.0011 341:0 342:0 343:0 344:0 345:0 346:0 347:0 348:0 349:0 350:0 351:0 352:0 353:0 354:0.0004 355:0.004 356:0.0014 357:0 358:0 359:0 360:0 361:0 362:0 363:0 364:0 365:0 366:0 367:0 368:0 369:0 370:0.0004 371:0.0053 372:0.002 373:0 374:0 375:0 376:0 377:0 378:0 379:0 380:0 381:0 382:0 383:0 384:0 385:0.1772 386:-0.0278 387:0.0313 388:0.0372 389:0.0273 390:0.0259 391:0.0241 392:-0.0236 393:0.0222 394:0.1581 395:-0.0504 396:0.0466 397:0.0205 398:0.0168 399:0.0192 400:-0.0217 401:-0.0094 402:-0.0148 403:0.1679 404:-0.0438 405:0.063 406:0.0172 407:0.0106 408:0.0191 409:-0.0216 410:-0.012 411:0.0183 412:0.1665 413:-0.048 414:0.0607 415:0.019 416:0.0139 417:0.0191 418:-0.0212 419:-0.016 420:0.0103 421:0.1685 422:-0.0439 423:0.0569 424:0.0194 425:0.0098 426:0.0255 427:-0.0238 428:-0.0048 429:0.0209 430:0.1455 431:-0.0662 432:0.0599 433:0.0281 434:0.0258 435:0.0289 436:-0.0242 437:0.0138 438:0.0234 439:0.1638 440:-0.0456 441:0.0478 442:0.029 443:0.0298 444:0.0297 445:0.0246 446:0.0209 447:0.0155 448:0.1677 449:-0.0512 450:0.0714 451:0.0149 452:0.0102 453:0.0198 454:-0.0078 455:-0.0089 456:0.0187 457:0.1573 458:-0.0601 459:0.0688 460:0.0182 461:0.0187 462:0.023 463:-0.016 464:-0.02 465:0.0239 466:0.1646 467:-0.0419 468:0.0511 469:0.0293 470:0.0214 471:0.028 472:-0.024 473:-0.0127 474:0.0155 475:0.16 476:-0.0555 477:0.0569 478:0.0254 479:0.0207 480:0.022 481:-0.0282 482:-0.0147 483:0.0231 484:0.1782 485:-0.032 486:0.044 487:0.0323 488:0.0275 489:0.0341 490:0.0231 491:-0.0247 492:0.0302 493:0.1723 494:-0.0458 495:0.0547 496:0.0324 497:0.0234 498:0.0271 499:-0.0058 500:-0.0219 501:0.0255 502:0.1506 503:-0.0558 504:0.0664 505:0.0433 506:0.0321 507:0.0364 508:0.0382 509:0.0153 510:-0.0233 511:0.202 512:-0.0082 513:0.0149 514:0.0431 515:0.0182 516:0.0273 517:-0.028 518:-0.023 519:0.0317 520:0.1609 521:-0.0519 522:0.0606 523:0.0328 524:0.0327 525:0.0347 526:0.0312 527:0.0061 528:-0.0145 529:0.1906 530:-0.0226 531:0.0396 532:0.0441 533:0.024 534:0.0374 535:0.0163 536:-0.0194 537:0.0329 538:0.1896 539:-0.02 540:0.0366 541:0.0533 542:0.0317 543:0.0337 544:-0.0361 545:-0.031 546:0.0305 547:0.1526 548:-0.0406 549:0.0553 550:0.0574 551:0.0388 552:0.0352 553:0.0431 554:-0.0096 555:0.0127 556:0.1689 557:-0.0422 558:0.0551 559:0.0427 560:0.0318 561:0.0318 562:0.0345 563:-0.0148 564:0.0237 565:0.1608 566:-0.056 567:0.057 568:0.0178 569:0.0165 570:0.0202 571:-0.0212 572:-0.0182 573:0.021 574:0.1581 575:-0.0507 576:0.0662 577:0.0332 578:0.0238 579:0.0253 580:0.0193 581:-0.0166 582:0.0161 583:0.2364 584:-0.0013 585:0.0152 586:0.0289 587:0.007 588:0.0151 589:-0.031 590:-0.011 591:0.0199 592:0.2534 593:-0.0003 594:0.0111 595:0.0156 596:0.002 597:0.0102 598:-0.0201 599:0.0021 600:0.0097 601:0.237 602:-0.0006 603:0.0149 604:0.0203 605:0.0034 606:0.0075 607:-0.021 608:-0.0053 609:0.0061 610:0.0071 611:0.0145 612:0.0014 613:0.0247 614:0.0965 615:0.0146 616:0.0885 617:0.4292 618:0.0536 619:0.0048 620:0.0011 621:0.0002 622:0.0151 623:0.0059 624:0.0024 625:0.0533 626:0.0266 627:0.0058 628:0.0062 629:0.0058 630:0.0011 631:0.022 632:0.0115 633:0.0048 634:0.0616 635:0.0809 636:0.0126 637:0.0109 638:0.0073 639:0.0044 640:0.0442 641:0.0584 642:0.0152 643:0.2121 644:0.1695 645:0.0303 646:0.0118 647:0.0065 648:0.0026 649:0.0483 650:0.0388 651:0.0236 652:0.2025 653:0.2701 654:0.092 655:0.0141 656:0.0208 657:0.0049 658:0.0919 659:0.0779 660:0.0325 661:0.2589 662:0.3053 663:0.161 664:0.0056 665:0.004 666:0.0008 667:0.0348 668:0.0144 669:0.0056 670:0.1181 671:0.0514 672:0.0373 673:0.0242 674:0.018 675:0.0065 676:0.0784 677:0.0912 678:0.0283 679:0.322 680:0.3622 681:0.0761 682:0.024 683:0.015 684:0.0074 685:0.0789 686:0.0743 687:0.0308 688:0.2537 689:0.1114 690:0.0559 
4 1:0.0457 2:0.0342 3:0.0359 4:0.0458 5:0.0652 6:0.0466 7:0.0384 8:0.045 9:0.1151 10:0.0702 11:0.0409 12:0.0428 13:0.0514 14:0.0344 15:0.0416 16:0.0686 17:0.0926 18:0.0592 19:0.0385 20:0.0456 21:0.0575 22:0.0445 23:0.045 24:0.0568 25:0.0431 26:0.0391 27:0.0362 28:0.0409 29:0.0506 30:0.0478 31:0.037 32:0.0423 33:0.0561 34:0.0505 35:0.0528 36:0.0791 37:0.0931 38:0.0578 39:0.0367 40:0.0367 41:0.1849 42:0.0811 43:0.0456 44:0.0697 45:0.0788 46:0.0441 47:0.0346 48:0.0744 49:0.1348 50:0.074 51:0.0406 52:0.0631 53:0.0969 54:0.073 55:0.0489 56:0.0538 57:0.0645 58:0.0587 59:0.0438 60:0.0491 61:0.0666 62:0.0518 63:0.0517 64:0.0465 65:0.059 66:0.0414 67:0.0369 68:0.06 69:0.0903 70:0.0723 71:0.0535 72:0.0499 73:0.1847 74:0.0731 75:0.0378 76:0.0473 77:0.0734 78:0.0671 79:0.0479 80:0.0827 81:0.1392 82:0.0581 83:0.0484 84:0.0647 85:0.0865 86:0.0709 87:0.0394 88:0.0643 89:0.0638 90:0.0477 91:0.044 92:0.0518 93:0.063 94:0.0565 95:0.0507 96:0.046 97:0.0483 98:0.039 99:0.0284 100:0.0358 101:0.062 102:0.0552 103:0.0438 104:0.0426 105:0.1083 106:0.063 107:0.0416 108:0.0389 109:0.0524 110:0.0502 111:0.0461 112:0.0679 113:0.0883 114:0.0662 115:0.054 116:0.0418 117:0.0478 118:0.045 119:0.0374 120:0.0532 121:0.045 122:0.0428 123:0.0412 124:0.0518 125:0.0557 126:0.0348 127:0.0365 128:0.0336 129:0 130:0 131:0.0002 132:0.0002 133:0 134:0.0002 135:0.0006 136:0 137:0 138:0 139:0 140:0 141:0.0008 142:0 143:0 144:0 145:0 146:0.0071 147:0.019 148:0.0027 149:0.0017 150:0.0732 151:0.0509 152:0.0008 153:0.0065 154:0.0082 155:0.0024 156:0 157:0.014 158:0.0021 159:0 160:0 161:0.0003 162:0.0041 163:0.015 164:0.0033 165:0.0017 166:0.0407 167:0.0123 168:0.0002 169:0.0082 170:0.0283 171:0.0005 172:0 173:0.0167 174:0.0044 175:0 176:0 177:0 178:0.0024 179:0.0026 180:0.0002 181:0.0023 182:0.2027 183:0.0454 184:0 185:0.0161 186:0.1611 187:0.0026 188:0 189:0.0345 190:0.0173 191:0 192:0 193:0.0003 194:0.0038 195:0.0032 196:0 197:0.0018 198:0.1129 199:0.0289 200:0 201:0.0053 202:0.0094 203:0 204:0 205:0.0128 206:0.0003 207:0 208:0 209:0 210:0 211:0 212:0 213:0.0003 214:0 215:0 216:0 217:0.0018 218:0 219:0 220:0 221:0.0043 222:0 223:0 224:0 225:0 226:0 227:0 228:0 229:0 230:0 231:0 232:0 233:0 234:0 235:0 236:0 237:0.0015 238:0 239:0 240:0 241:0 242:0 243:0 244:0 245:0 246:0 247:0 248:0 249:0 250:0 251:0 252:0 253:0 254:0 255:0 256:0 257:0 258:0 259:0 260:0 261:0 262:0 263:0 264:0 265:0 266:0 267:0 268:0 269:0 270:0 271:0 272:0 273:0 274:0 275:0 276:0 277:0 278:0 279:0 280:0 281:0 282:0 283:0 284:0 285:0 286:0 287:0 288:0 289:0 290:0 291:0 292:0 293:0 294:0 295:0 296:0 297:0 298:0 299:0 300:0 301:0 302:0 303:0 304:0 305:0 306:0 307:0 308:0 309:0 310:0 311:0 312:0 313:0 314:0 315:0 316:0 317:0 318:0 319:0 320:0 321:0 322:0 323:0 324:0 325:0 326:0 327:0 328:0 329:0 330:0 331:0 332:0 333:0 334:0 335:0 336:0 337:0 338:0 339:0 340:0 341:0 342:0 343:0 344:0 345:0 346:0 347:0 348:0 349:0 350:0 351:0 352:0 353:0 354:0 355:0 356:0 357:0 358:0 359:0 360:0 361:0 362:0 363:0 364:0 365:0 366:0 367:0 368:0 369:0 370:0 371:0 372:0 373:0 374:0 375:0 376:0 377:0 378:0 379:0 380:0 381:0 382:0 383:0 384:0 385:0.1865 386:-0.0249 387:0.0585 388:0.0306 389:0.0159 390:0.0248 391:-0.0332 392:0.0111 393:0.0279 394:0.1823 395:-0.0402 396:0.0693 397:0.0349 398:0.0136 399:0.0274 400:-0.0387 401:-0.0166 402:0.0302 403:0.1817 404:-0.0433 405:0.07 406:0.027 407:0.012 408:0.0246 409:-0.0316 410:-0.015 411:0.028 412:0.1716 413:-0.0484 414:0.0841 415:0.0351 416:0.0159 417:0.0276 418:-0.0386 419:-0.016 420:0.027 421:0.1788 422:-0.0268 423:0.0806 424:0.0292 425:0.0164 426:0.0308 427:-0.034 428:0.0067 429:0.0267 430:0.1813 431:-0.0388 432:0.0586 433:0.0395 434:0.0146 435:0.0258 436:-0.045 437:-0.0184 438:0.0303 439:0.1788 440:-0.044 441:0.0679 442:0.0379 443:0.017 444:0.028 445:-0.0406 446:-0.0198 447:0.0287 448:0.1628 449:-0.0416 450:0.0703 451:0.0479 452:0.0173 453:0.0283 454:-0.0494 455:-0.0137 456:0.0279 457:0.1728 458:-0.0459 459:0.0813 460:0.0386 461:0.0182 462:0.0286 463:-0.0405 464:-0.0147 465:0.0256 466:0.1664 467:-0.0159 468:0.0688 469:0.0441 470:0.0222 471:0.0302 472:-0.0407 473:-0.0209 474:0.0286 475:0.1665 476:-0.0329 477:0.0655 478:0.046 479:0.0232 480:0.0289 481:-0.0451 482:-0.0161 483:0.0279 484:0.1828 485:-0.0455 486:0.0653 487:0.0365 488:0.017 489:0.0262 490:-0.0427 491:-0.0206 492:0.03 493:0.1585 494:-0.0179 495:0.0753 496:0.0396 497:0.0223 498:0.0352 499:-0.0316 500:-0.0195 501:0.0252 502:0.1843 503:-0.0061 504:0.0541 505:0.0394 506:0.0119 507:0.0254 508:-0.0428 509:-0.014 510:0.0301 511:0.1872 512:0.004 513:0.051 514:0.0345 515:0.0062 516:0.0257 517:-0.0157 518:0.0024 519:0.0253 520:0.1703 521:-0.026 522:0.0612 523:0.0428 524:0.024 525:0.0251 526:-0.0458 527:-0.0187 528:0.0276 529:0.1785 530:-0.0216 531:0.0672 532:0.0374 533:0.022 534:0.0295 535:-0.0381 536:-0.008 537:0.0324 538:0.1876 539:-0.0017 540:0.0487 541:0.0256 542:0.0069 543:0.0202 544:-0.0285 545:-0.0067 546:0.0262 547:0.2078 548:-0.0021 549:0.0308 550:0.0259 551:0.0081 552:0.0139 553:-0.0342 554:-0.0153 555:0.0122 556:0.1662 557:0.0025 558:0.0587 559:0.0443 560:0.0144 561:0.0285 562:-0.0398 563:-0.0176 564:0.0238 565:0.17 566:0.0066 567:0.0569 568:0.0344 569:0.0089 570:0.0275 571:-0.0304 572:-0.0095 573:0.0299 574:0.1564 575:0.0019 576:0.0675 577:0.0448 578:0.0107 579:0.0254 580:-0.043 581:0.0111 582:0.0261 583:0.1377 584:-0.0052 585:0.0648 586:0.0552 587:0.0235 588:0.0271 589:-0.0393 590:-0.0251 591:0.0233 592:0.1413 593:-0.0034 594:0.0562 595:0.059 596:0.027 597:0.0323 598:0.0115 599:-0.0259 600:0.0232 601:0.1571 602:0.0057 603:0.0692 604:0.0323 605:0.007 606:0.0267 607:-0.0317 608:0.006 609:0.0281 610:0.0132 611:0.014 612:0.004 613:0.0532 614:0.0461 615:0.0342 616:0.1139 617:0.1787 618:0.0406 619:0.0123 620:0.0084 621:0.0033 622:0.0478 623:0.0371 624:0.0247 625:0.1426 626:0.0778 627:0.0419 628:0.0126 629:0.0085 630:0.0029 631:0.0507 632:0.032 633:0.0217 634:0.1921 635:0.0747 636:0.0632 637:0.0092 638:0.0122 639:0.0037 640:0.0527 641:0.0697 642:0.0258 643:0.0928 644:0.2091 645:0.0699 646:0.0111 647:0.0118 648:0.0038 649:0.0444 650:0.0453 651:0.0247 652:0.1332 653:0.1395 654:0.0829 655:0.0103 656:0.0123 657:0.0028 658:0.0443 659:0.0338 660:0.0187 661:0.1171 662:0.0814 663:0.036 664:0.0138 665:0.0126 666:0.0049 667:0.0521 668:0.065 669:0.0285 670:0.0921 671:0.1268 672:0.0384 673:0.0204 674:0.0054 675:0.0033 676:0.0512 677:0.0199 678:0.0159 679:0.7042 680:0.0659 681:0.0283 682:0.0212 683:0.0116 684:0.0058 685:0.0817 686:0.0434 687:0.024 688:0.3771 689:0.1722 690:0.0541 
0.85181697217509755 1:0.0454 2:0.0477 3:0.0573 4:0.0446 5:0.029 6:0.0303 7:0.0335 8:0.0423 9:0.0981 10:0.0758 11:0.0587 12:0.0408 13:0.0299 14:0.0338 15:0.0443 16:0.0689 17:0.0976 18:0.062 19:0.0352 20:0.0323 21:0.0466 22:0.0531 23:0.0637 24:0.0785 25:0.0451 26:0.027 27:0.0263 28:0.0393 29:0.0483 30:0.0592 31:0.0561 32:0.0498 33:0.0677 34:0.0586 35:0.054 36:0.0503 37:0.0448 38:0.0426 39:0.0391 40:0.0402 41:0.1646 42:0.0886 43:0.0595 44:0.0551 45:0.044 46:0.04 47:0.0397 48:0.0834 49:0.1633 50:0.0845 51:0.0385 52:0.041 53:0.0569 54:0.0576 55:0.0558 56:0.0835 57:0.0554 58:0.0302 59:0.034 60:0.0628 61:0.0682 62:0.0695 63:0.0583 64:0.0501 65:0.068 66:0.0492 67:0.0375 68:0.037 69:0.0417 70:0.0491 71:0.0595 72:0.0534 73:0.1638 74:0.0763 75:0.0347 76:0.0388 77:0.0472 78:0.0522 79:0.0626 80:0.0912 81:0.1674 82:0.08 83:0.047 84:0.0537 85:0.0564 86:0.0472 87:0.0435 88:0.0846 89:0.0571 90:0.0462 91:0.0492 92:0.0758 93:0.0733 94:0.0608 95:0.0423 96:0.0344 97:0.0493 98:0.0465 99:0.0341 100:0.0251 101:0.0289 102:0.039 103:0.0531 104:0.053 105:0.1026 106:0.0636 107:0.0354 108:0.0292 109:0.0298 110:0.0375 111:0.0551 112:0.0824 113:0.0983 114:0.0788 115:0.0462 116:0.0484 117:0.0471 118:0.0351 119:0.0363 120:0.0592 121:0.0439 122:0.0527 123:0.0476 124:0.0509 125:0.0541 126:0.0468 127:0.0303 128:0.0268 129:0.0001 130:0.0041 131:0.0134 132:0.0493 133:0.0001 134:0.0021 135:0.0182 136:0.0142 137:0 138:0 139:0.0002 140:0.0009 141:0.0005 142:0 143:0 144:0 145:0.0004 146:0.0111 147:0.0216 148:0.0625 149:0.0009 150:0.0299 151:0.1398 152:0.0513 153:0.0012 154:0.0194 155:0.0137 156:0.0048 157:0.0065 158:0.0071 159:0.0007 160:0.0001 161:0.0003 162:0.0027 163:0.008 164:0.0117 165:0.0013 166:0.0198 167:0.0304 168:0.0043 169:0.0044 170:0.0209 171:0.0176 172:0.0008 173:0.0155 174:0.0055 175:0.0027 176:0 177:0.0002 178:0.0007 179:0.0011 180:0.0004 181:0.0031 182:0.0106 183:0.0135 184:0.0014 185:0.0047 186:0.0367 187:0.0164 188:0.0002 189:0.0276 190:0.0365 191:0.0012 192:0 193:0.0009 194:0.0007 195:0.0094 196:0 197:0.0022 198:0.0224 199:0.0422 200:0.0004 201:0.0106 202:0.0239 203:0.0025 204:0 205:0.0442 206:0.0188 207:0 208:0 209:0 210:0.0003 211:0.007 212:0 213:0.0019 214:0.002 215:0.0009 216:0 217:0.0033 218:0.0004 219:0 220:0 221:0.0145 222:0 223:0 224:0 225:0.0004 226:0 227:0 228:0 229:0.0003 230:0 231:0 232:0 233:0.0005 234:0 235:0 236:0 237:0.0002 238:0 239:0 240:0 241:0.0004 242:0 243:0 244:0 245:0.0009 246:0 247:0 248:0 249:0.0001 250:0 251:0 252:0 253:0 254:0 255:0 256:0 257:0.0001 258:0 259:0 260:0 261:0.0003 262:0 263:0 264:0 265:0 266:0 267:0 268:0 269:0 270:0 271:0 272:0 273:0.0007 274:0.0002 275:0.0001 276:0 277:0.0002 278:0 279:0 280:0 281:0 282:0 283:0 284:0 285:0 286:0 287:0 288:0 289:0.0002 290:0.0003 291:0.0014 292:0 293:0.0001 294:0 295:0 296:0 297:0 298:0 299:0 300:0 301:0 302:0 303:0 304:0 305:0 306:0.0004 307:0.0012 308:0.0001 309:0 310:0 311:0 312:0 313:0 314:0 315:0 316:0 317:0 318:0 319:0 320:0 321:0 322:0.0002 323:0.0002 324:0.0004 325:0 326:0 327:0 328:0 329:0 330:0 331:0 332:0 333:0 334:0 335:0 336:0 337:0 338:0 339:0.0004 340:0.0014 341:0 342:0 343:0 344:0 345:0 346:0 347:0 348:0 349:0 350:0 351:0 352:0 353:0 354:0.0003 355:0.0002 356:0.0005 357:0 358:0 359:0 360:0 361:0 362:0 363:0 364:0 365:0 366:0 367:0 368:0 369:0.0001 370:0.0003 371:0.0019 372:0.0025 373:0 374:0.0001 375:0 376:0 377:0 378:0 379:0 380:0 381:0 382:0 383:0 384:0 385:0.1208 386:-0.0216 387:0.0365 388:0.0581 389:0.0215 390:0.0293 391:0.0416 392:-0.0189 393:0.0257 394:0.1314 395:-0.0447 396:0.0552 397:0.0531 398:0.0294 399:0.0416 400:0.0194 401:-0.0168 402:0.0316 403:0.1477 404:-0.0482 405:0.0733 406:0.0451 407:0.0312 408:0.0377 409:-0.0376 410:-0.0191 411:0.026 412:0.1409 413:-0.0444 414:0.0614 415:0.0564 416:0.0287 417:0.0487 418:-0.0184 419:-0.0173 420:0.0369 421:0.1441 422:-0.0466 423:0.0554 424:0.0581 425:0.0255 426:0.0352 427:-0.0246 428:-0.016 429:0.0271 430:0.1355 431:-0.0352 432:0.0547 433:0.0536 434:0.0261 435:0.0338 436:0.0186 437:-0.0209 438:0.0202 439:0.1768 440:-0.0265 441:0.0669 442:0.0408 443:0.0342 444:0.0421 445:-0.0429 446:-0.0281 447:0.0268 448:0.2012 449:-0.0022 450:0.0352 451:0.0282 452:0.0141 453:0.0242 454:-0.0363 455:-0.0212 456:0.0332 457:0.1675 458:-0.0544 459:0.0922 460:0.0461 461:0.0249 462:0.0412 463:-0.0325 464:0.0165 465:-0.0241 466:0.167 467:-0.0587 468:0.086 469:0.0468 470:0.0192 471:0.0352 472:-0.0416 473:-0.0161 474:0.0253 475:0.147 476:-0.051 477:0.0639 478:0.0521 479:0.0238 480:0.0377 481:-0.0322 482:-0.0183 483:0.0289 484:0.1477 485:-0.0448 486:0.0666 487:0.0487 488:0.028 489:0.038 490:-0.0317 491:0.0128 492:0.0281 493:0.1812 494:-0.0121 495:0.0533 496:0.0456 497:0.0236 498:0.0356 499:-0.0373 500:-0.0246 501:0.0342 502:0.1957 503:-0.0207 504:0.0652 505:0.0474 506:0.0301 507:0.045 508:-0.0437 509:-0.0217 510:0.0322 511:0.1616 512:-0.0519 513:0.1017 514:0.0406 515:0.0255 516:0.041 517:-0.029 518:0.0202 519:-0.0197 520:0.1285 521:-0.0486 522:0.0778 523:0.0417 524:0.0294 525:0.0299 526:0.0309 527:0.0117 528:0.0124 529:0.1543 530:-0.0377 531:0.0734 532:0.0509 533:0.0327 534:0.0387 535:0.0246 536:-0.0193 537:0.02 538:0.2121 539:0.0078 540:0.0313 541:0.0309 542:0.0046 543:0.0197 544:-0.0293 545:-0.0044 546:0.0276 547:0.1947 548:0.0082 549:0.0295 550:0.0316 551:0.0086 552:0.0241 553:-0.0164 554:0.0068 555:0.027 556:0.1953 557:-0.0143 558:0.059 559:0.0415 560:0.0305 561:0.0392 562:-0.0344 563:-0.0299 564:0.035 565:0.1186 566:-0.0532 567:0.0659 568:0.0378 569:0.0274 570:0.0339 571:0.0278 572:-0.0168 573:0.0223 574:0.1382 575:-0.0683 576:0.0895 577:0.0315 578:0.0236 579:0.0306 580:-0.0127 581:-0.0056 582:0.0111 583:0.1898 584:-0.0341 585:0.0847 586:0.033 587:0.0268 588:0.0425 589:-0.0199 590:-0.0164 591:0.025 592:0.2268 593:0.001 594:0.0275 595:0.0287 596:0.0199 597:0.0322 598:-0.0281 599:-0.0273 600:0.0439 601:0.1848 602:-0.0431 603:0.0961 604:0.0313 605:0.0245 606:0.0407 607:0.0179 608:0.0121 609:-0.0257 610:0.0064 611:0.0094 612:0.0018 613:0.0283 614:0.0453 615:0.0116 616:0.1057 617:0.2047 618:0.0375 619:0.0092 620:0.0097 621:0.0034 622:0.0407 623:0.0608 624:0.0156 625:0.1717 626:0.254 627:0.0389 628:0.0098 629:0.0115 630:0.003 631:0.0376 632:0.0615 633:0.0158 634:0.2108 635:0.3518 636:0.0738 637:0.0077 638:0.0084 639:0.0024 640:0.0603 641:0.0443 642:0.0178 643:0.3522 644:0.1503 645:0.0763 646:0.0193 647:0.0258 648:0.0074 649:0.0784 650:0.0925 651:0.0326 652:0.1696 653:0.3195 654:0.0709 655:0.0157 656:0.02 657:0.007 658:0.0558 659:0.0724 660:0.0258 661:0.1765 662:0.2652 663:0.0711 664:0.0151 665:0.0119 666:0.0044 667:0.042 668:0.0286 669:0.0139 670:0.0944 671:0.0564 672:0.0261 673:0.0194 674:0.016 675:0.0073 676:0.0611 677:0.0566 678:0.0278 679:0.2583 680:0.1634 681:0.0583 682:0.0211 683:0.0124 684:0.0061 685:0.0675 686:0.046 687:0.0295 688:0.2762 689:0.1457 690:0.0864 
4 1:0.0485 2:0.0336 3:0.0345 4:0.0472 5:0.0378 6:0.0265 7:0.0263 8:0.0337 9:0.1208 10:0.0599 11:0.0304 12:0.0437 13:0.0559 14:0.0289 15:0.0317 16:0.054 17:0.1225 18:0.0413 19:0.0262 20:0.0307 21:0.0399 22:0.0322 23:0.0456 24:0.0762 25:0.0412 26:0.0182 27:0.0163 28:0.0292 29:0.0417 30:0.0432 31:0.045 32:0.0449 33:0.0626 34:0.0305 35:0.0326 36:0.0521 37:0.0569 38:0.0464 39:0.0338 40:0.0375 41:0.1681 42:0.0627 43:0.0418 44:0.062 45:0.0871 46:0.0435 47:0.0247 48:0.0716 49:0.1937 50:0.0729 51:0.0279 52:0.0407 53:0.0611 54:0.0426 55:0.0326 56:0.0725 57:0.0641 58:0.0295 59:0.0194 60:0.0395 61:0.0601 62:0.0473 63:0.0373 64:0.05 65:0.0626 66:0.0363 67:0.0247 68:0.0388 69:0.0677 70:0.0557 71:0.0423 72:0.0446 73:0.1617 74:0.0769 75:0.0272 76:0.0361 77:0.0898 78:0.0713 79:0.046 80:0.0668 81:0.1977 82:0.0826 83:0.0345 84:0.0394 85:0.0568 86:0.0382 87:0.0336 88:0.0853 89:0.0604 90:0.039 91:0.033 92:0.0431 93:0.0546 94:0.0426 95:0.0283 96:0.0398 97:0.0484 98:0.0325 99:0.0252 100:0.0297 101:0.0457 102:0.0367 103:0.042 104:0.0411 105:0.1092 106:0.0609 107:0.0326 108:0.0315 109:0.0635 110:0.0438 111:0.0415 112:0.0601 113:0.1275 114:0.0847 115:0.0389 116:0.0284 117:0.0345 118:0.0278 119:0.0349 120:0.0606 121:0.045 122:0.0438 123:0.0411 124:0.0346 125:0.038 126:0.0245 127:0.0223 128:0.0292 129:0 130:0.0014 131:0.0184 132:0.0092 133:0 134:0.0002 135:0.0037 136:0.0006 137:0 138:0 139:0.0004 140:0 141:0 142:0 143:0 144:0 145:0 146:0.0519 147:0.1323 148:0.0147 149:0.0018 150:0.0812 151:0.0493 152:0.0032 153:0.0013 154:0.0099 155:0.0096 156:0.0064 157:0.0055 158:0.0038 159:0.0023 160:0 161:0.0009 162:0.0607 163:0.0235 164:0.0003 165:0.0054 166:0.1451 167:0.0199 168:0.0002 169:0.0116 170:0.01 171:0.0013 172:0 173:0.0121 174:0.0009 175:0 176:0 177:0.0015 178:0.0024 179:0.0007 180:0 181:0.0076 182:0.0272 183:0.1393 184:0.0001 185:0.0275 186:0.0079 187:0 188:0 189:0.0282 190:0.0001 191:0 192:0 193:0.0001 194:0.0016 195:0 196:0 197:0.004 198:0.0011 199:0.0006 200:0 201:0.0162 202:0.0002 203:0 204:0 205:0.0246 206:0 207:0 208:0 209:0 210:0 211:0 212:0 213:0.0019 214:0 215:0 216:0 217:0.005 218:0 219:0 220:0 221:0.0013 222:0 223:0 224:0 225:0 226:0 227:0 228:0 229:0.0001 230:0 231:0 232:0 233:0.0004 234:0 235:0 236:0 237:0 238:0 239:0 240:0 241:0 242:0 243:0 244:0 245:0 246:0 247:0 248:0 249:0 250:0 251:0 252:0 253:0 254:0 255:0 256:0 257:0 258:0 259:0 260:0 261:0 262:0 263:0 264:0 265:0 266:0 267:0 268:0 269:0 270:0 271:0 272:0 273:0 274:0 275:0 276:0 277:0 278:0 279:0 280:0 281:0 282:0 283:0 284:0 285:0 286:0 287:0 288:0 289:0 290:0 291:0 292:0 293:0 294:0 295:0 296:0 297:0 298:0 299:0 300:0 301:0 302:0 303:0 304:0 305:0 306:0 307:0 308:0 309:0 310:0 311:0 312:0 313:0 314:0 315:0 316:0 317:0 318:0 319:0 320:0 321:0 322:0 323:0 324:0 325:0 326:0 327:0 328:0 329:0 330:0 331:0 332:0 333:0 334:0 335:0 336:0 337:0 338:0 339:0 340:0 341:0 342:0 343:0 344:0 345:0 346:0 347:0 348:0 349:0 350:0 351:0 352:0 353:0 354:0 355:0 356:0 357:0 358:0 359:0 360:0 361:0 362:0 363:0 364:0 365:0 366:0 367:0 368:0 369:0 370:0.0002 371:0.0006 372:0.0007 373:0 374:0 375:0 376:0 377:0 378:0 379:0 380:0 381:0 382:0 383:0 384:0 385:0.1899 386:-0.0219 387:0.0423 388:0.0278 389:0.0126 390:0.0104 391:-0.043 392:0.0112 393:0.009 394:0.185 395:-0.0319 396:0.0509 397:0.0351 398:0.008 399:0.0157 400:-0.0472 401:-0.0114 402:0.0224 403:0.1857 404:-0.0327 405:0.0496 406:0.0333 407:0.0079 408:0.014 409:-0.0465 410:-0.0122 411:0.0208 412:0.1859 413:-0.0253 414:0.0447 415:0.0195 416:0.0102 417:0.0133 418:-0.0317 419:0.0108 420:0.0154 421:0.1734 422:-0.0062 423:0.0269 424:0.0235 425:0.0072 426:0.0121 427:-0.0368 428:-0.0092 429:0.0151 430:0.1998 431:-0.0192 432:0.0398 433:0.0165 434:0.0136 435:0.0099 436:-0.0237 437:0.0127 438:-0.0065 439:0.1762 440:-0.0261 441:0.0623 442:0.0479 443:0.0142 444:0.0276 445:-0.0479 446:0.0053 447:0.0304 448:0.1742 449:-0.0322 450:0.0513 451:0.0513 452:0.0111 453:0.0181 454:-0.0536 455:-0.0133 456:0.0226 457:0.1924 458:-0.0213 459:0.0397 460:0.0128 461:0.0103 462:0.0077 463:-0.0128 464:0.0093 465:-0.0076 466:0.1799 467:-0.0082 468:0.0279 469:0.0117 470:0.0092 471:0.0112 472:-0.011 473:-0.0101 474:0.011 475:0.2048 476:-0.0254 477:0.0435 478:0.0173 479:0.0107 480:0.0106 481:-0.0267 482:0.0134 483:-0.0102 484:0.156 485:-0.0191 486:0.0511 487:0.0459 488:0.0181 489:0.03 490:-0.019 491:-0.0131 492:0.0302 493:0.1739 494:-0.0303 495:0.0507 496:0.0467 497:0.0116 498:0.0204 499:-0.0422 500:-0.0135 501:0.0254 502:0.1937 503:-0.0182 504:0.0371 505:0.0148 506:0.0104 507:0.0082 508:-0.0136 509:0.0075 510:-0.0073 511:0.1804 512:-0.0108 513:0.0336 514:0.0147 515:0.0097 516:0.0119 517:-0.0134 518:-0.0095 519:0.0134 520:0.1979 521:-0.0317 522:0.0507 523:0.0176 524:0.0028 525:0.0081 526:-0.0278 527:-0.0042 528:0.0135 529:0.2026 530:-0.0207 531:0.0387 532:0.008 533:0.0124 534:0.0125 535:-0.0098 536:0.0122 537:-0.0125 538:0.1987 539:-0.0221 540:0.0411 541:0.0117 542:0.0105 543:0.0087 544:-0.0155 545:0.0114 546:-0.0104 547:0.1903 548:-0.0096 549:0.043 550:0.0186 551:0.0174 552:0.0171 553:-0.0192 554:0.0064 555:0.0217 556:0.1709 557:-0.0059 558:0.034 559:0.0225 560:0.0085 561:0.0169 562:-0.0174 563:-0.01 564:0.0199 565:0.1974 566:-0.0299 567:0.0472 568:0.0157 569:0.0021 570:0.0047 571:-0.0249 572:-0.0027 573:0.0073 574:0.2034 575:-0.0293 576:0.0463 577:0.0033 578:0.0011 579:0.0012 580:0.0022 581:0.0007 582:0.0009 583:0.1971 584:-0.0112 585:0.0297 586:0.0156 587:0.0136 588:0.0142 589:-0.0173 590:-0.0094 591:-0.0047 592:0.2057 593:0.0045 594:0.014 595:0.0178 596:0.0023 597:0.0062 598:-0.006 599:-0.001 600:0.0054 601:0.188 602:-0.001 603:0.0245 604:0.0202 605:0.0082 606:0.011 607:0.0091 608:-0.0105 609:0.0102 610:0.0105 611:0.0108 612:0.0004 613:0.0371 614:0.0568 615:0.003 616:0.0761 617:0.0817 618:0.0073 619:0.0152 620:0.0112 621:0.0013 622:0.0532 623:0.038 624:0.006 625:0.1895 626:0.5321 627:0.0871 628:0.0116 629:0.0058 630:0.0014 631:0.0261 632:0.0244 633:0.0031 634:0.0353 635:0.0637 636:0.007 637:0.0078 638:0.0219 639:0.0023 640:0.0425 641:0.1021 642:0.0099 643:0.3544 644:0.2764 645:0.0636 646:0.0051 647:0.0084 648:0.0017 649:0.029 650:0.0603 651:0.0113 652:0.1523 653:0.4941 654:0.0302 655:0.0028 656:0.0116 657:0.0016 658:0.0048 659:0.0286 660:0.0042 661:0.0161 662:0.1738 663:0.0122 664:0.0005 665:0.0085 666:0 667:0.0025 668:0.053 669:0.0002 670:0.0136 671:0.0732 672:0.0006 673:0.0124 674:0.0091 675:0.0049 676:0.0493 677:0.0311 678:0.0145 679:0.1364 680:0.0797 681:0.0475 682:0.0143 683:0.0194 684:0.0077 685:0.0517 686:0.0602 687:0.0252 688:0.113 689:0.2378 690:0.0682 
1.9127717797869566 1:0.0565 2:0.0405 3:0.0324 4:0.0373 5:0.036 6:0.0239 7:0.0169 8:0.0342 9:0.1179 10:0.0601 11:0.0345 12:0.0331 13:0.0382 14:0.031 15:0.0428 16:0.0684 17:0.1063 18:0.056 19:0.029 20:0.0291 21:0.0356 22:0.042 23:0.0578 24:0.0894 25:0.0538 26:0.0314 27:0.0217 28:0.0261 29:0.0447 30:0.0491 31:0.0523 32:0.0623 33:0.0833 34:0.051 35:0.0412 36:0.0431 37:0.0454 38:0.0308 39:0.0203 40:0.0436 41:0.1755 42:0.0752 43:0.0448 44:0.0489 45:0.0564 46:0.0375 47:0.0337 48:0.0838 49:0.1717 50:0.0725 51:0.031 52:0.0377 53:0.0505 54:0.053 55:0.053 56:0.0933 57:0.0705 58:0.0364 59:0.0317 60:0.0478 61:0.0594 62:0.0572 63:0.0528 64:0.0557 65:0.0853 66:0.0509 67:0.0293 68:0.038 69:0.0473 70:0.0448 71:0.0309 72:0.0464 73:0.18 74:0.0834 75:0.0326 76:0.0368 77:0.0508 78:0.043 79:0.0371 80:0.0784 81:0.1757 82:0.0851 83:0.0502 84:0.0582 85:0.0581 86:0.0362 87:0.0274 88:0.0774 89:0.067 90:0.0562 91:0.0559 92:0.0727 93:0.0655 94:0.0392 95:0.0289 96:0.036 97:0.0635 98:0.0442 99:0.0266 100:0.0311 101:0.0348 102:0.0361 103:0.0245 104:0.045 105:0.1314 106:0.07 107:0.0368 108:0.0299 109:0.0312 110:0.0294 111:0.028 112:0.0786 113:0.1094 114:0.0792 115:0.0509 116:0.0482 117:0.0327 118:0.0276 119:0.0236 120:0.0579 121:0.0474 122:0.0513 123:0.0493 124:0.0583 125:0.046 126:0.0269 127:0.0238 128:0.0285 129:0.0001 130:0.0076 131:0.0202 132:0.0148 133:0 134:0.0008 135:0.0021 136:0.0009 137:0 138:0 139:0 140:0.0002 141:0 142:0 143:0 144:0 145:0.0001 146:0.0341 147:0.0651 148:0.0385 149:0.0019 150:0.0374 151:0.0335 152:0.0048 153:0.0025 154:0.0153 155:0.0045 156:0.0029 157:0.0026 158:0.0038 159:0.0009 160:0.0004 161:0.0004 162:0.024 163:0.0149 164:0.0109 165:0.0064 166:0.0206 167:0.0036 168:0.0016 169:0.0056 170:0.0068 171:0.0004 172:0.0012 173:0.0096 174:0.0012 175:0.0003 176:0 177:0.0003 178:0.0079 179:0.0066 180:0.0043 181:0.0038 182:0.0537 183:0.0029 184:0 185:0.0045 186:0.0532 187:0.0015 188:0 189:0.0082 190:0.0637 191:0 192:0 193:0 194:0.0021 195:0.0038 196:0.0019 197:0.0004 198:0.0672 199:0.0063 200:0 201:0.0079 202:0.1156 203:0.0027 204:0 205:0.0702 206:0.0638 207:0 208:0 209:0.0001 210:0.0002 211:0.0013 212:0.001 213:0 214:0.0011 215:0.0003 216:0 217:0.0008 218:0.0002 219:0 220:0 221:0.0048 222:0 223:0 224:0 225:0 226:0 227:0.0007 228:0.0013 229:0 230:0 231:0.0001 232:0 233:0 234:0 235:0 236:0 237:0 238:0 239:0 240:0 241:0 242:0.0001 243:0.0001 244:0.0006 245:0 246:0 247:0 248:0 249:0 250:0 251:0 252:0 253:0 254:0 255:0 256:0 257:0 258:0.0002 259:0.0003 260:0.0004 261:0 262:0 263:0 264:0 265:0 266:0 267:0 268:0 269:0 270:0 271:0 272:0 273:0 274:0.0004 275:0.0011 276:0.0029 277:0 278:0 279:0 280:0 281:0 282:0 283:0 284:0 285:0 286:0 287:0 288:0 289:0 290:0.0002 291:0.002 292:0.0045 293:0 294:0 295:0 296:0 297:0 298:0 299:0 300:0 301:0 302:0 303:0 304:0 305:0 306:0.0001 307:0.0019 308:0.0024 309:0 310:0 311:0 312:0 313:0 314:0 315:0 316:0 317:0 318:0 319:0 320:0 321:0 322:0.0002 323:0.0008 324:0.0011 325:0 326:0 327:0 328:0 329:0 330:0 331:0 332:0 333:0 334:0 335:0 336:0 337:0 338:0.0003 339:0.0006 340:0.0012 341:0 342:0 343:0 344:0 345:0 346:0 347:0 348:0 349:0 350:0 351:0 352:0 353:0 354:0.0001 355:0.0008 356:0.001 357:0 358:0 359:0 360:0 361:0 362:0 363:0 364:0 365:0 366:0 367:0 368:0 369:0 370:0.001 371:0.0057 372:0.0021 373:0 374:0 375:0 376:0 377:0 378:0 379:0 380:0 381:0 382:0 383:0 384:0 385:0.1825 386:-0.003 387:0.0167 388:0.0182 389:0.0069 390:0.0094 391:0.0088 392:-0.0076 393:0.0098 394:0.1662 395:-0.0592 396:0.1005 397:0.0119 398:0.0171 399:0.0403 400:0.0043 401:0.0082 402:0.0198 403:0.1745 404:-0.0606 405:0.092 406:0.0145 407:0.0125 408:0.036 409:-0.0108 410:-0.0082 411:0.0283 412:0.1393 413:-0.0393 414:0.0409 415:0.038 416:0.0252 417:0.034 418:-0.0265 419:-0.0209 420:0.0305 421:0.109 422:-0.0344 423:0.0417 424:0.045 425:0.0275 426:0.0364 427:0.0278 428:-0.0253 429:0.0352 430:0.1873 431:-0.0026 432:0.0136 433:0.0205 434:0.0093 435:0.0114 436:0.0109 437:-0.012 438:0.014 439:0.159 440:-0.0549 441:0.0834 442:0.0349 443:0.0276 444:0.0365 445:-0.0263 446:0.0247 447:-0.032 448:0.1837 449:-0.0299 450:0.0498 451:0.03 452:0.0303 453:0.0348 454:-0.0243 455:-0.0188 456:0.0261 457:0.1539 458:-0.0291 459:0.0639 460:0.0347 461:0.0256 462:0.0317 463:-0.027 464:-0.0219 465:0.0252 466:0.1625 467:-0.0158 468:0.059 469:0.0442 470:0.017 471:0.0339 472:-0.0257 473:-0.0152 474:0.0353 475:0.1945 476:-0.0165 477:0.0236 478:0.0227 479:0.0167 480:0.0116 481:-0.0087 482:-0.0099 483:0.0082 484:0.1724 485:-0.0171 486:0.0519 487:0.0423 488:0.0267 489:0.0309 490:-0.034 491:-0.0248 492:0.0243 493:0.1985 494:-0.0052 495:0.0302 496:0.0433 497:0.0119 498:0.0265 499:-0.0363 500:-0.0151 501:0.0274 502:0.1556 503:-0.0528 504:0.0747 505:0.027 506:0.0321 507:0.0352 508:0.0192 509:0.0175 510:0.0136 511:0.1508 512:-0.0679 513:0.0846 514:0.0189 515:0.0215 516:0.0279 517:-0.0098 518:0.0089 519:-0.002 520:0.1983 521:-0.0352 522:0.0337 523:0.0242 524:0.0118 525:0.0173 526:-0.0152 527:0.0099 528:0.0201 529:0.2272 530:0.0004 531:0.0233 532:0.0337 533:0.015 534:0.0299 535:-0.0287 536:-0.0202 537:0.0389 538:0.2149 539:0.0031 540:0.0192 541:0.0314 542:0.0061 543:0.0139 544:-0.0258 545:-0.0068 546:0.0127 547:0.1649 548:-0.0598 549:0.094 550:0.0177 551:0.0178 552:0.0305 553:0.0172 554:0.0193 555:-0.0234 556:0.156 557:-0.0644 558:0.0919 559:0.0129 560:0.0167 561:0.0276 562:0.0118 563:0.0151 564:-0.0185 565:0.1785 566:-0.046 567:0.063 568:0.0266 569:0.0211 570:0.0274 571:0.0126 572:0.021 573:-0.0186 574:0.2145 575:-0.0212 576:0.0319 577:0.0346 578:0.0252 579:0.0302 580:-0.0235 581:-0.019 582:0.0275 583:0.2151 584:-0.002 585:0.0163 586:0.0316 587:0.0093 588:0.0165 589:-0.0235 590:-0.0133 591:0.0237 592:0.1745 593:-0.0388 594:0.0558 595:0.0129 596:0.0129 597:0.0237 598:0.0084 599:-0.0126 600:0.0286 601:0.1737 602:-0.0338 603:0.0442 604:0.0035 605:0.0027 606:0.0037 607:-0.0024 608:-0.0035 609:0.0054 610:0.0055 611:0.007 612:0.0024 613:0.0151 614:0.0175 615:0.0054 616:0.1003 617:0.0494 618:0.0155 619:0.0105 620:0.008 621:0.0026 622:0.0214 623:0.0354 624:0.0082 625:0.1551 626:0.0802 627:0.0438 628:0.0257 629:0.0108 630:0.0047 631:0.0797 632:0.0495 633:0.0219 634:0.4847 635:0.2254 636:0.0435 637:0.0175 638:0.0232 639:0.0095 640:0.0651 641:0.0488 642:0.0234 643:0.1926 644:0.1584 645:0.0493 646:0.0252 647:0.0153 648:0.006 649:0.1135 650:0.0647 651:0.0262 652:0.4474 653:0.2747 654:0.0791 655:0.0108 656:0.0024 657:0.0015 658:0.0238 659:0.0094 660:0.0064 661:0.0573 662:0.0419 663:0.0355 664:0.0171 665:0.0168 666:0.0075 667:0.0545 668:0.0398 669:0.0195 670:0.2318 671:0.258 672:0.0461 673:0.0267 674:0.0279 675:0.0148 676:0.0598 677:0.0915 678:0.0345 679:0.241 680:0.2468 681:0.1096 682:0.0013 683:0.001 684:0.0004 685:0.0043 686:0.0023 687:0.0015 688:0.016 689:0.0054 690:0.0036 
0.16744805591863565 1:0.0471 2:0.0433 3:0.035 4:0.0439 5:0.0498 6:0.0454 7:0.032 8:0.0323 9:0.106 10:0.0645 11:0.0356 12:0.04 13:0.0489 14:0.0418 15:0.0402 16:0.0586 17:0.1108 18:0.0632 19:0.0264 20:0.0341 21:0.0521 22:0.0437 23:0.0467 24:0.0808 25:0.0449 26:0.0254 27:0.0216 28:0.0374 29:0.0669 30:0.0551 31:0.0433 32:0.0506 33:0.0741 34:0.0479 35:0.0407 36:0.0604 37:0.0662 38:0.0557 39:0.0373 40:0.0432 41:0.1594 42:0.069 43:0.0413 44:0.063 45:0.0809 46:0.0566 47:0.0381 48:0.0729 49:0.1735 50:0.0808 51:0.0344 52:0.0476 53:0.0719 54:0.0655 55:0.0502 56:0.0851 57:0.0607 58:0.0374 59:0.0454 60:0.0647 61:0.0863 62:0.0663 63:0.0475 64:0.0589 65:0.0784 66:0.0444 67:0.0321 68:0.0539 69:0.0657 70:0.0468 71:0.0349 72:0.0475 73:0.1657 74:0.0744 75:0.0314 76:0.0451 77:0.0753 78:0.0677 79:0.0499 80:0.0712 81:0.1701 82:0.0784 83:0.051 84:0.0727 85:0.0812 86:0.044 87:0.0389 88:0.0766 89:0.0574 90:0.0498 91:0.0636 92:0.0742 93:0.0854 94:0.0477 95:0.0344 96:0.0461 97:0.0588 98:0.0345 99:0.0239 100:0.0326 101:0.0475 102:0.0432 103:0.0336 104:0.0466 105:0.1171 106:0.0597 107:0.0321 108:0.0378 109:0.0475 110:0.0424 111:0.0343 112:0.0702 113:0.0901 114:0.0683 115:0.0473 116:0.059 117:0.067 118:0.0396 119:0.027 120:0.0567 121:0.0492 122:0.0502 123:0.0452 124:0.0573 125:0.0596 126:0.0387 127:0.0298 128:0.0348 129:0 130:0 131:0.0011 132:0.0025 133:0 134:0 135:0.0029 136:0.0084 137:0 138:0.0001 139:0.0017 140:0.0023 141:0 142:0.0001 143:0 144:0 145:0 146:0.0057 147:0.0137 148:0.0043 149:0 150:0.0214 151:0.0852 152:0.0445 153:0.0011 154:0.0171 155:0.0138 156:0.0002 157:0.001 158:0.0047 159:0 160:0 161:0 162:0.0187 163:0.0175 164:0.0235 165:0.004 166:0.0631 167:0.1507 168:0.0562 169:0.0146 170:0.1188 171:0.0217 172:0 173:0.0284 174:0.0501 175:0 176:0 177:0.0005 178:0.0149 179:0.0078 180:0.0037 181:0.0089 182:0.0235 183:0.0071 184:0.0035 185:0.0144 186:0.0055 187:0.0043 188:0.0017 189:0.0206 190:0.0041 191:0.0016 192:0 193:0.0011 194:0.0128 195:0.0018 196:0.002 197:0.0104 198:0.0075 199:0.0011 200:0.0005 201:0.0107 202:0 203:0 204:0 205:0.0143 206:0 207:0 208:0 209:0.0004 210:0.0028 211:0.0005 212:0.0002 213:0.0024 214:0.0005 215:0.0001 216:0 217:0.0012 218:0 219:0 220:0 221:0.0007 222:0 223:0 224:0 225:0 226:0 227:0.0006 228:0.0004 229:0 230:0 231:0 232:0 233:0.0001 234:0 235:0 236:0 237:0 238:0 239:0 240:0 241:0 242:0.0002 243:0.0005 244:0.0007 245:0 246:0 247:0 248:0 249:0 250:0 251:0 252:0 253:0 254:0 255:0 256:0 257:0 258:0 259:0.0002 260:0.0024 261:0 262:0 263:0 264:0 265:0 266:0 267:0 268:0 269:0 270:0 271:0 272:0 273:0 274:0 275:0 276:0.001 277:0 278:0 279:0 280:0 281:0 282:0 283:0 284:0 285:0 286:0 287:0 288:0 289:0 290:0 291:0.0001 292:0.0002 293:0 294:0 295:0 296:0 297:0 298:0 299:0 300:0 301:0 302:0 303:0 304:0 305:0 306:0 307:0 308:0.0001 309:0 310:0 311:0 312:0 313:0 314:0 315:0 316:0 317:0 318:0 319:0 320:0 321:0 322:0 323:0 324:0.0001 325:0 326:0 327:0 328:0 329:0 330:0 331:0 332:0 333:0 334:0 335:0 336:0 337:0 338:0 339:0 340:0.0011 341:0 342:0 343:0 344:0 345:0 346:0 347:0 348:0 349:0 350:0 351:0 352:0 353:0 354:0 355:0 356:0.0002 357:0 358:0 359:0 360:0 361:0 362:0 363:0 364:0 365:0 366:0 367:0 368:0 369:0 370:0 371:0 372:0 373:0 374:0 375:0 376:0 377:0 378:0 379:0 380:0 381:0 382:0 383:0 384:0 385:0.1785 386:-0.0393 387:0.0945 388:0.0315 389:0.016 390:0.0326 391:-0.0287 392:-0.0125 393:0.0256 394:0.177 395:-0.0305 396:0.082 397:0.0312 398:0.0133 399:0.0289 400:-0.027 401:-0.0084 402:0.0255 403:0.1801 404:-0.0148 405:0.0694 406:0.0305 407:0.0086 408:0.0295 409:-0.0229 410:-0.0093 411:0.0302 412:0.171 413:-0.0268 414:0.0866 415:0.0321 416:0.012 417:0.0315 418:-0.0265 419:-0.0092 420:0.0264 421:0.1554 422:-0.0227 423:0.0893 424:0.0294 425:0.0091 426:0.0293 427:-0.0291 428:-0.0095 429:0.0219 430:0.1804 431:-0.0262 432:0.0863 433:0.0356 434:0.0178 435:0.033 436:-0.031 437:-0.0159 438:0.0283 439:0.1777 440:-0.0267 441:0.0626 442:0.0442 443:0.0194 444:0.0464 445:0.0241 446:-0.0162 447:0.0404 448:0.172 449:-0.0075 450:0.0531 451:0.0351 452:0.0154 453:0.0305 454:-0.0291 455:0.0079 456:0.0303 457:0.1763 458:-0.0151 459:0.0753 460:0.0308 461:0.0127 462:0.0327 463:-0.019 464:0.0096 465:0.0276 466:0.17 467:-0.0166 468:0.0701 469:0.0435 470:0.0099 471:0.0292 472:-0.038 473:-0.0073 474:0.0277 475:0.1713 476:-0.0134 477:0.0662 478:0.0402 479:0.0097 480:0.0301 481:-0.0324 482:-0.0111 483:0.0262 484:0.149 485:-0.0252 486:0.0475 487:0.0442 488:0.017 489:0.0332 490:0.0365 491:-0.0176 492:0.0305 493:0.1707 494:-0.0069 495:0.0307 496:0.0312 497:0.0157 498:0.0173 499:-0.0301 500:-0.0191 501:0.0203 502:0.1891 503:-0.0012 504:0.0384 505:0.023 506:0.0101 507:0.0233 508:-0.01 509:0.0108 510:0.0253 511:0.1834 512:-0.023 513:0.0786 514:0.0252 515:0.0147 516:0.0284 517:-0.0239 518:-0.0123 519:0.0267 520:0.175 521:-0.0107 522:0.0535 523:0.039 524:0.0071 525:0.0313 526:-0.0172 527:-0.0067 528:0.0269 529:0.1729 530:-0.014 531:0.0496 532:0.0383 533:0.0114 534:0.0266 535:-0.0239 536:-0.0145 537:0.0244 538:0.1937 539:-0.0072 540:0.0523 541:0.0255 542:0.0111 543:0.0217 544:-0.0206 545:0.0092 546:0.0226 547:0.1971 548:-0.012 549:0.0562 550:0.0206 551:0.0107 552:0.0212 553:-0.0152 554:-0.0083 555:0.0238 556:0.1859 557:-0.0153 558:0.0624 559:0.0221 560:0.0096 561:0.0247 562:-0.0156 563:-0.0101 564:0.0282 565:0.1536 566:-0.0194 567:0.0601 568:0.0383 569:0.0176 570:0.0268 571:-0.0187 572:-0.0206 573:0.0243 574:0.1966 575:-0.0179 576:0.0589 577:0.0257 578:0.0121 579:0.0205 580:-0.0211 581:-0.0123 582:0.0229 583:0.1896 584:-0.0096 585:0.0591 586:0.0251 587:0.0048 588:0.0218 589:-0.0155 590:-0.0057 591:0.0265 592:0.1895 593:-0.0085 594:0.0617 595:0.0292 596:0.0051 597:0.0261 598:-0.0186 599:-0.0048 600:0.0294 601:0.1869 602:-0.0106 603:0.063 604:0.0273 605:0.0064 606:0.0251 607:-0.0224 608:-0.0059 609:0.0277 610:0.0139 611:0.034 612:0.0087 613:0.0415 614:0.1128 615:0.0346 616:0.0805 617:0.6082 618:0.0866 619:0.0226 620:0.0241 621:0.0129 622:0.0545 623:0.081 624:0.0344 625:0.1311 626:0.1575 627:0.0927 628:0.0137 629:0.0209 630:0.007 631:0.041 632:0.0613 633:0.0215 634:0.1049 635:0.1513 636:0.0612 637:0.0183 638:0.0318 639:0.0122 640:0.0588 641:0.1859 642:0.0388 643:0.097 644:0.3239 645:0.1883 646:0.0147 647:0.015 648:0.0049 649:0.0456 650:0.0655 651:0.0189 652:0.1547 653:0.188 654:0.1515 655:0.0151 656:0.0159 657:0.0104 658:0.0355 659:0.0396 660:0.0255 661:0.1046 662:0.126 663:0.0307 664:0.02 665:0.0291 666:0.0127 667:0.0541 668:0.0893 669:0.0478 670:0.142 671:0.2229 672:0.1962 673:0.0296 674:0.0203 675:0.0119 676:0.0641 677:0.0424 678:0.0296 679:0.0606 680:0.0929 681:0.1196 682:0.0244 683:0.0229 684:0.0115 685:0.0666 686:0.0347 687:0.0274 688:0.0727 689:0.0797 690:0.0574 
2.7896339924134494 1:0.0653 2:0.0368 3:0.0341 4:0.0402 5:0.0487 6:0.0382 7:0.0175 8:0.0267 9:0.1108 10:0.0639 11:0.0421 12:0.0404 13:0.0547 14:0.0379 15:0.0291 16:0.0545 17:0.094 18:0.055 19:0.0369 20:0.0289 21:0.0523 22:0.0405 23:0.0519 24:0.0787 25:0.0487 26:0.0358 27:0.0273 28:0.028 29:0.0504 30:0.0493 31:0.0504 32:0.0504 33:0.0766 34:0.0444 35:0.0407 36:0.0485 37:0.0543 38:0.0462 39:0.0244 40:0.0355 41:0.1625 42:0.0632 43:0.0453 44:0.07 45:0.0627 46:0.0457 47:0.036 48:0.071 49:0.175 50:0.0716 51:0.0357 52:0.0377 53:0.0635 54:0.0647 55:0.055 56:0.089 57:0.0671 58:0.0396 59:0.0332 60:0.0511 61:0.0842 62:0.0707 63:0.0551 64:0.0641 65:0.0697 66:0.0412 67:0.0298 68:0.0431 69:0.0535 70:0.0554 71:0.0376 72:0.0467 73:0.1686 74:0.0633 75:0.0378 76:0.0529 77:0.0607 78:0.0594 79:0.0453 80:0.0704 81:0.1784 82:0.0799 83:0.0507 84:0.0578 85:0.0666 86:0.0498 87:0.0357 88:0.0769 89:0.0736 90:0.0559 91:0.0495 92:0.0689 93:0.089 94:0.0533 95:0.0339 96:0.0457 97:0.0484 98:0.0328 99:0.0249 100:0.0283 101:0.0453 102:0.043 103:0.039 104:0.0452 105:0.1096 106:0.0454 107:0.0296 108:0.0295 109:0.0365 110:0.0455 111:0.0489 112:0.0712 113:0.1052 114:0.0545 115:0.033 116:0.0387 117:0.0487 118:0.0462 119:0.0381 120:0.0658 121:0.0577 122:0.0462 123:0.0316 124:0.0496 125:0.0666 126:0.0434 127:0.0207 128:0.0282 129:0 130:0 131:0.0004 132:0.0048 133:0 134:0 135:0 136:0 137:0 138:0 139:0 140:0 141:0 142:0 143:0 144:0 145:0 146:0.0024 147:0.0137 148:0.0177 149:0 150:0.0052 151:0.0116 152:0.0076 153:0.0002 154:0.0013 155:0 156:0 157:0.0009 158:0.0002 159:0 160:0 161:0 162:0.0081 163:0.0285 164:0.058 165:0.0024 166:0.0651 167:0.0366 168:0.0155 169:0.0109 170:0.0261 171:0.002 172:0 173:0.0331 174:0.007 175:0 176:0 177:0 178:0.0311 179:0.0227 180:0.0116 181:0.0091 182:0.0582 183:0.0325 184:0.0187 185:0.0233 186:0.02 187:0.0185 188:0.0013 189:0.0412 190:0.0113 191:0.0017 192:0 193:0.0007 194:0.0606 195:0.0089 196:0.0048 197:0.0264 198:0.024 199:0.0006 200:0.0002 201:0.0377 202:0.0009 203:0.0004 204:0 205:0.0471 206:0.0009 207:0 208:0 209:0.0013 210:0.0481 211:0.0063 212:0.0017 213:0.0144 214:0.0068 215:0 216:0 217:0.0115 218:0 219:0 220:0 221:0.0035 222:0 223:0 224:0 225:0 226:0.0098 227:0.0011 228:0.002 229:0.0009 230:0 231:0 232:0 233:0.0007 234:0 235:0 236:0 237:0.0002 238:0 239:0 240:0 241:0 242:0.0002 243:0.0009 244:0.0004 245:0 246:0 247:0 248:0 249:0 250:0 251:0 252:0 253:0 254:0 255:0 256:0 257:0 258:0.0002 259:0.0002 260:0.0059 261:0 262:0 263:0 264:0 265:0 266:0 267:0 268:0 269:0 270:0 271:0 272:0 273:0 274:0.0002 275:0.0004 276:0.0013 277:0 278:0 279:0 280:0 281:0 282:0 283:0 284:0 285:0 286:0 287:0 288:0 289:0 290:0 291:0 292:0.0028 293:0 294:0 295:0 296:0 297:0 298:0 299:0 300:0 301:0 302:0 303:0 304:0 305:0 306:0 307:0.0002 308:0.0002 309:0 310:0 311:0 312:0 313:0 314:0 315:0 316:0 317:0 318:0 319:0 320:0 321:0 322:0 323:0.0002 324:0.0013 325:0 326:0 327:0 328:0 329:0 330:0 331:0 332:0 333:0 334:0 335:0 336:0 337:0 338:0 339:0 340:0.0031 341:0 342:0 343:0 344:0 345:0 346:0 347:0 348:0 349:0 350:0 351:0 352:0 353:0 354:0 355:0 356:0.0006 357:0 358:0 359:0 360:0 361:0 362:0 363:0 364:0 365:0 366:0 367:0 368:0 369:0 370:0 371:0 372:0 373:0 374:0 375:0 376:0 377:0 378:0 379:0 380:0 381:0 382:0 383:0 384:0 385:0.1894 386:-0.034 387:0.0741 388:0.0331 389:0.0169 390:0.0342 391:-0.0271 392:-0.0136 393:0.0301 394:0.1849 395:-0.0339 396:0.0727 397:0.033 398:0.0156 399:0.033 400:-0.0287 401:-0.0136 402:0.0322 403:0.1822 404:-0.0217 405:0.0543 406:0.0364 407:0.0175 408:0.0304 409:-0.0281 410:-0.0219 411:0.0321 412:0.1947 413:-0.0127 414:0.0499 415:0.0333 416:0.0075 417:0.0299 418:-0.0244 419:-0.0064 420:0.029 421:0.1829 422:-0.0153 423:0.0537 424:0.0347 425:0.0122 426:0.0253 427:-0.0321 428:-0.0162 429:0.0292 430:0.1632 431:-0.0201 432:0.0714 433:0.0359 434:0.0123 435:0.0301 436:-0.0292 437:-0.0131 438:0.0269 439:0.1409 440:-0.0267 441:0.0417 442:0.0284 443:0.0155 444:0.0269 445:0.0079 446:-0.0158 447:0.0275 448:0.1658 449:-0.0147 450:0.0135 451:0.0295 452:0.0087 453:0.0097 454:0.0256 455:-0.0089 456:0.0123 457:0.1709 458:-0.0211 459:0.0314 460:0.0552 461:0.0202 462:0.0301 463:0.0266 464:-0.0201 465:0.0293 466:0.1687 467:-0.0189 468:0.0523 469:0.033 470:0.0125 471:0.0312 472:-0.0243 473:-0.0166 474:0.0294 475:0.1959 476:-0.0096 477:0.055 478:0.0314 479:0.0088 480:0.0259 481:-0.0291 482:-0.0097 483:0.0296 484:0.1807 485:-0.0112 486:0.0613 487:0.0372 488:0.0108 489:0.0275 490:-0.0326 491:-0.0137 492:0.0281 493:0.1563 494:-0.0206 495:0.0553 496:0.0503 497:0.0175 498:0.0369 499:0.0148 500:-0.0175 501:0.0297 502:0.1395 503:-0.0295 504:0.038 505:0.0434 506:0.0196 507:0.0269 508:0.0092 509:-0.0182 510:0.0259 511:0.1606 512:-0.0196 513:0.0674 514:0.0359 515:0.0125 516:0.0292 517:-0.028 518:-0.015 519:0.0247 520:0.2021 521:-0.0055 522:0.0477 523:0.0276 524:0.0059 525:0.0212 526:-0.0257 527:-0.0061 528:0.0273 529:0.2041 530:-0.005 531:0.0527 532:0.0281 533:0.0055 534:0.0227 535:-0.0271 536:-0.0054 537:0.029 538:0.1986 539:-0.0104 540:0.0359 541:0.0471 542:0.0142 543:0.0368 544:-0.0384 545:-0.0186 546:0.0373 547:0.1631 548:-0.0219 549:0.054 550:0.0428 551:0.0147 552:0.0328 553:-0.032 554:-0.0166 555:0.0307 556:0.1922 557:-0.0088 558:0.0614 559:0.0271 560:0.0059 561:0.0245 562:-0.0228 563:-0.0068 564:0.0296 565:0.2075 566:-0.0036 567:0.0321 568:0.0207 569:0.0057 570:0.0168 571:-0.0123 572:-0.006 573:0.0185 574:0.1934 575:-0.008 576:0.0488 577:0.0309 578:0.009 579:0.018 580:-0.0296 581:-0.0117 582:0.0205 583:0.1717 584:-0.025 585:0.0643 586:0.0458 587:0.0153 588:0.0292 589:-0.0339 590:-0.0157 591:0.0247 592:0.1956 593:-0.0165 594:0.0648 595:0.0289 596:0.0094 597:0.0268 598:-0.0254 599:-0.0086 600:0.0303 601:0.1989 602:-0.0078 603:0.0558 604:0.0257 605:0.0047 606:0.0202 607:-0.0185 608:-0.0046 609:0.0239 610:0.0142 611:0.0173 612:0.0098 613:0.0478 614:0.0383 615:0.0284 616:0.1973 617:0.1192 618:0.0488 619:0.0109 620:0.0179 621:0.0047 622:0.0316 623:0.0296 624:0.0107 625:0.1336 626:0.0795 627:0.0435 628:0.0133 629:0.014 630:0.0061 631:0.0677 632:0.0469 633:0.0219 634:0.2021 635:0.582 636:0.0516 637:0.0334 638:0.0157 639:0.0082 640:0.0377 641:0.0392 642:0.0263 643:0.1637 644:0.0337 645:0.0439 646:0.0163 647:0.0218 648:0.0093 649:0.034 650:0.07 651:0.0331 652:0.1951 653:0.3788 654:0.0902 655:0.0093 656:0.0173 657:0.0063 658:0.0294 659:0.0738 660:0.0108 661:0.07 662:0.1982 663:0.0294 664:0.0255 665:0.0127 666:0.0074 667:0.0427 668:0.0207 669:0.0168 670:0.162 671:0.034 672:0.0277 673:0.0282 674:0.0138 675:0.0086 676:0.0678 677:0.0486 678:0.0246 679:0.3375 680:0.1984 681:0.074 682:0.0198 683:0.0188 684:0.0081 685:0.0306 686:0.0318 687:0.0202 688:0.1652 689:0.0778 690:0.0322 
4 1:0.043 2:0.0473 3:0.0492 4:0.0462 5:0.0396 6:0.0326 7:0.0407 8:0.0336 9:0.114 10:0.0688 11:0.0439 12:0.0356 13:0.0582 14:0.0436 15:0.0376 16:0.0612 17:0.1228 18:0.0576 19:0.0309 20:0.0372 21:0.0682 22:0.0582 23:0.0424 24:0.0716 25:0.0466 26:0.0246 27:0.0284 28:0.0575 29:0.0759 30:0.0492 31:0.0358 32:0.0424 33:0.0632 34:0.0498 35:0.0532 36:0.0586 37:0.0636 38:0.0496 39:0.0272 40:0.0318 41:0.1701 42:0.0796 43:0.0481 44:0.055 45:0.0728 46:0.0529 47:0.0286 48:0.0722 49:0.1617 50:0.0756 51:0.0331 52:0.0587 53:0.1051 54:0.0706 55:0.0396 56:0.066 57:0.0633 58:0.0317 59:0.0324 60:0.0682 61:0.1129 62:0.0597 63:0.0379 64:0.0437 65:0.0666 66:0.044 67:0.0308 68:0.0433 69:0.0649 70:0.0624 71:0.0383 72:0.0446 73:0.1759 74:0.0783 75:0.0312 76:0.047 77:0.0709 78:0.0595 79:0.0456 80:0.0818 81:0.1627 82:0.0715 83:0.0467 84:0.075 85:0.1023 86:0.0557 87:0.0293 88:0.0712 89:0.0585 90:0.0496 91:0.0471 92:0.0696 93:0.1107 94:0.0585 95:0.0309 96:0.0341 97:0.0544 98:0.0358 99:0.0247 100:0.0307 101:0.0437 102:0.0492 103:0.0352 104:0.0453 105:0.1036 106:0.0573 107:0.0336 108:0.0382 109:0.0437 110:0.0386 111:0.0422 112:0.0755 113:0.1037 114:0.0707 115:0.0407 116:0.0468 117:0.0686 118:0.0422 119:0.0313 120:0.0551 121:0.0458 122:0.0425 123:0.031 124:0.0403 125:0.0669 126:0.056 127:0.0291 128:0.0296 129:0 130:0 131:0 132:0 133:0 134:0 135:0 136:0 137:0 138:0 139:0 140:0 141:0 142:0 143:0 144:0 145:0 146:0 147:0.0014 148:0.0011 149:0 150:0.0005 151:0.0066 152:0.0052 153:0 154:0.0003 155:0.0061 156:0.0003 157:0 158:0 159:0 160:0 161:0 162:0 163:0.0073 164:0.0047 165:0 166:0.0034 167:0.0469 168:0.0157 169:0 170:0.0052 171:0.0043 172:0.0064 173:0 174:0.0008 175:0.0005 176:0.0002 177:0 178:0.0006 179:0.0361 180:0.0393 181:0 182:0.0232 183:0.3044 184:0.0885 185:0.0002 186:0.0526 187:0.048 188:0 189:0.0037 190:0.0662 191:0.0005 192:0 193:0 194:0.0024 195:0.0384 196:0.0274 197:0 198:0.0157 199:0.0231 200:0.0098 201:0 202:0.0098 203:0.0003 204:0 205:0.0086 206:0.0196 207:0 208:0 209:0 210:0.0031 211:0.0202 212:0.0136 213:0 214:0.0014 215:0.0008 216:0 217:0 218:0 219:0 220:0 221:0.0002 222:0 223:0 224:0 225:0 226:0.0008 227:0.0063 228:0.0098 229:0 230:0.0018 231:0.0009 232:0 233:0 234:0 235:0 236:0 237:0 238:0 239:0 240:0 241:0 242:0 243:0.0011 244:0.0043 245:0 246:0.0006 247:0 248:0 249:0 250:0 251:0 252:0 253:0 254:0 255:0 256:0 257:0 258:0 259:0 260:0.0002 261:0 262:0 263:0 264:0 265:0 266:0 267:0 268:0 269:0 270:0 271:0 272:0 273:0 274:0 275:0 276:0 277:0 278:0 279:0 280:0 281:0 282:0 283:0 284:0 285:0 286:0 287:0 288:0 289:0 290:0 291:0 292:0 293:0 294:0 295:0 296:0 297:0 298:0 299:0 300:0 301:0 302:0 303:0 304:0 305:0 306:0 307:0 308:0 309:0 310:0 311:0 312:0 313:0 314:0 315:0 316:0 317:0 318:0 319:0 320:0 321:0 322:0 323:0 324:0 325:0 326:0 327:0 328:0 329:0 330:0 331:0 332:0 333:0 334:0 335:0 336:0 337:0 338:0 339:0 340:0 341:0 342:0 343:0 344:0 345:0 346:0 347:0 348:0 349:0 350:0 351:0 352:0 353:0 354:0 355:0 356:0 357:0 358:0 359:0 360:0 361:0 362:0 363:0 364:0 365:0 366:0 367:0 368:0 369:0 370:0 371:0 372:0 373:0 374:0 375:0 376:0 377:0 378:0 379:0 380:0 381:0 382:0 383:0 384:0 385:0.1667 386:-0.0593 387:0.0823 388:0.0227 389:0.0169 390:0.0304 391:-0.0119 392:-0.0149 393:0.0252 394:0.1766 395:-0.0456 396:0.0677 397:0.0222 398:0.0134 399:0.0244 400:-0.0126 401:-0.0141 402:0.026 403:0.1758 404:-0.0483 405:0.0821 406:0.021 407:0.0145 408:0.0292 409:-0.0111 410:-0.0129 411:0.024 412:0.1699 413:-0.0483 414:0.0849 415:0.0188 416:0.0152 417:0.0272 418:-0.0133 419:-0.0139 420:0.0229 421:0.1845 422:-0.0273 423:0.0463 424:0.0217 425:0.0131 426:0.0254 427:-0.0184 428:-0.0156 429:0.0302 430:0.1725 431:-0.0517 432:0.0823 433:0.0197 434:0.0133 435:0.027 436:-0.0152 437:-0.013 438:0.0253 439:0.1801 440:-0.0397 441:0.0631 442:0.0226 443:0.0126 444:0.0251 445:0.0071 446:-0.0106 447:0.0258 448:0.1873 449:-0.0304 450:0.051 451:0.0243 452:0.0144 453:0.0351 454:-0.0112 455:-0.0131 456:0.0322 457:0.1734 458:-0.0409 459:0.0805 460:0.0176 461:0.012 462:0.0286 463:-0.0109 464:0.0056 465:0.0186 466:0.1713 467:-0.0349 468:0.0656 469:0.023 470:0.0153 471:0.0343 472:-0.0158 473:-0.0124 474:0.0275 475:0.1712 476:-0.0481 477:0.0769 478:0.0181 479:0.0138 480:0.0288 481:-0.0124 482:-0.0125 483:0.0276 484:0.1792 485:-0.0281 486:0.0434 487:0.0208 488:0.0113 489:0.0222 490:-0.0158 491:-0.0114 492:0.0259 493:0.1891 494:-0.0271 495:0.0464 496:0.0238 497:0.0115 498:0.0286 499:-0.0156 500:-0.0106 501:0.0234 502:0.1814 503:-0.0217 504:0.05 505:0.0179 506:0.0142 507:0.0258 508:-0.0137 509:0.0074 510:0.0262 511:0.1726 512:-0.0263 513:0.0433 514:0.0237 515:0.019 516:0.0283 517:-0.0221 518:-0.0193 519:0.0311 520:0.1755 521:-0.0394 522:0.0556 523:0.0266 524:0.019 525:0.0325 526:0.0058 527:-0.012 528:0.0251 529:0.187 530:-0.0282 531:0.0432 532:0.0329 533:0.0212 534:0.036 535:-0.0272 536:-0.025 537:0.0383 538:0.184 539:-0.0275 540:0.058 541:0.0195 542:0.0083 543:0.0215 544:-0.009 545:-0.008 546:0.0229 547:0.1869 548:-0.0219 549:0.0452 550:0.0168 551:0.0072 552:0.0186 553:-0.013 554:-0.0071 555:0.0155 556:0.1806 557:-0.031 558:0.0498 559:0.019 560:0.0169 561:0.0271 562:-0.0137 563:0.0065 564:0.0225 565:0.1839 566:-0.0434 567:0.0704 568:0.0152 569:0.0114 570:0.0198 571:-0.0121 572:-0.0084 573:0.02 574:0.1901 575:-0.0289 576:0.0558 577:0.0172 578:0.0101 579:0.0216 580:-0.0076 581:-0.0071 582:0.0211 583:0.1895 584:-0.0235 585:0.0508 586:0.0154 587:0.0074 588:0.0149 589:-0.0077 590:-0.0066 591:0.0155 592:0.1896 593:-0.0246 594:0.05 595:0.0139 596:0.0073 597:0.012 598:-0.0061 599:-0.0064 600:0.0114 601:0.184 602:-0.0398 603:0.0693 604:0.0167 605:0.0106 606:0.0222 607:-0.0052 608:-0.0088 609:0.024 610:0.0101 611:0.0707 612:0.0092 613:0.0273 614:0.1921 615:0.0374 616:0.0379 617:0.1666 618:0.0589 619:0.0278 620:0.0436 621:0.0097 622:0.0707 623:0.1281 624:0.033 625:0.0777 626:0.1854 627:0.0815 628:0.0306 629:0.0309 630:0.0183 631:0.0514 632:0.084 633:0.0286 634:0.1518 635:0.2391 636:0.1165 637:0.0395 638:0.0275 639:0.0147 640:0.0613 641:0.0784 642:0.031 643:0.1766 644:0.2762 645:0.0457 646:0.0306 647:0.0284 648:0.0141 649:0.0782 650:0.0961 651:0.0321 652:0.1781 653:0.2462 654:0.0746 655:0.0291 656:0.0227 657:0.0133 658:0.0842 659:0.0536 660:0.0356 661:0.2574 662:0.1413 663:0.1326 664:0.0378 665:0.0182 666:0.0148 667:0.1037 668:0.044 669:0.0374 670:0.2543 671:0.4527 672:0.0909 673:0.0379 674:0.0166 675:0.0134 676:0.0855 677:0.0358 678:0.0386 679:0.0852 680:0.122 681:0.1236 682:0.029 683:0.0154 684:0.0178 685:0.0532 686:0.0337 687:0.0425 688:0.0861 689:0.1708 690:0.0371 
1.6177762101224993 1:0.0603 2:0.0519 3:0.0358 4:0.0366 5:0.0583 6:0.0296 7:0.0215 8:0.0309 9:0.1343 10:0.0773 11:0.0351 12:0.0323 13:0.0578 14:0.0363 15:0.0252 16:0.0486 17:0.1126 18:0.055 19:0.0263 20:0.0357 21:0.077 22:0.0456 23:0.0412 24:0.0571 25:0.05 26:0.036 27:0.0235 28:0.0374 29:0.0696 30:0.0452 31:0.0377 32:0.0331 33:0.0787 34:0.0561 35:0.0414 36:0.0552 37:0.0868 38:0.0432 39:0.0202 40:0.029 41:0.2006 42:0.0823 43:0.0377 44:0.0536 45:0.0734 46:0.0381 47:0.0214 48:0.0678 49:0.157 50:0.0577 51:0.0269 52:0.0501 53:0.1035 54:0.0649 55:0.0439 56:0.066 57:0.066 58:0.0368 59:0.0309 60:0.0577 61:0.097 62:0.0597 63:0.0397 64:0.0425 65:0.0774 66:0.0326 67:0.0253 68:0.0543 69:0.0881 70:0.0568 71:0.0392 72:0.0495 73:0.2046 74:0.0706 75:0.0242 76:0.0477 77:0.069 78:0.0451 79:0.0355 80:0.0834 81:0.1562 82:0.0674 83:0.0407 84:0.0673 85:0.0987 86:0.0501 87:0.0269 88:0.0579 89:0.0661 90:0.0404 91:0.0416 92:0.0642 93:0.1014 94:0.0553 95:0.0287 96:0.0377 97:0.0586 98:0.0303 99:0.0243 100:0.0337 101:0.0594 102:0.048 103:0.0416 104:0.0414 105:0.1371 106:0.0571 107:0.0283 108:0.0319 109:0.0498 110:0.0371 111:0.0373 112:0.0687 113:0.0984 114:0.0662 115:0.0448 116:0.0447 117:0.0669 118:0.0327 119:0.0292 120:0.0443 121:0.0466 122:0.0435 123:0.0409 124:0.0482 125:0.0788 126:0.0372 127:0.025 128:0.0311 129:0 130:0 131:0 132:0 133:0 134:0 135:0 136:0 137:0 138:0 139:0 140:0 141:0 142:0 143:0 144:0 145:0 146:0 147:0 148:0.0001 149:0 150:0.0002 151:0.0029 152:0.001 153:0 154:0.0001 155:0 156:0 157:0 158:0 159:0 160:0 161:0 162:0 163:0.0014 164:0.0034 165:0 166:0.0009 167:0.0054 168:0.0012 169:0 170:0.0008 171:0 172:0 173:0 174:0 175:0 176:0 177:0 178:0 179:0.0036 180:0.0225 181:0 182:0.0024 183:0.0797 184:0.064 185:0.0002 186:0.0027 187:0.0075 188:0.006 189:0.002 190:0.0028 191:0.0001 192:0 193:0 194:0 195:0.0161 196:0.0503 197:0 198:0.0091 199:0.1336 200:0.1773 201:0.0003 202:0.0398 203:0.0398 204:0.0181 205:0.0332 206:0.0779 207:0.0001 208:0 209:0 210:0.0007 211:0.0164 212:0.0068 213:0 214:0.0178 215:0.0095 216:0.0001 217:0.0017 218:0.0321 219:0 220:0 221:0.0261 222:0.0055 223:0 224:0 225:0 226:0 227:0.0158 228:0.0066 229:0 230:0.0157 231:0.0237 232:0.0003 233:0 234:0.003 235:0 236:0 237:0.0005 238:0.0006 239:0 240:0 241:0 242:0 243:0.0012 244:0.0014 245:0 246:0.0024 247:0.0051 248:0.0001 249:0 250:0.0002 251:0 252:0 253:0 254:0 255:0 256:0 257:0 258:0 259:0 260:0 261:0 262:0 263:0 264:0 265:0 266:0 267:0 268:0 269:0 270:0 271:0 272:0 273:0 274:0 275:0 276:0 277:0 278:0 279:0 280:0 281:0 282:0 283:0 284:0 285:0 286:0 287:0 288:0 289:0 290:0 291:0 292:0 293:0 294:0 295:0 296:0 297:0 298:0 299:0 300:0 301:0 302:0 303:0 304:0 305:0 306:0 307:0 308:0 309:0 310:0 311:0 312:0 313:0 314:0 315:0 316:0 317:0 318:0 319:0 320:0 321:0 322:0 323:0 324:0 325:0 326:0 327:0 328:0 329:0 330:0 331:0 332:0 333:0 334:0 335:0 336:0 337:0 338:0 339:0 340:0 341:0 342:0 343:0 344:0 345:0 346:0 347:0 348:0 349:0 350:0 351:0 352:0 353:0 354:0 355:0 356:0 357:0 358:0 359:0 360:0 361:0 362:0 363:0 364:0 365:0 366:0 367:0 368:0 369:0 370:0 371:0 372:0 373:0 374:0 375:0 376:0 377:0 378:0 379:0 380:0 381:0 382:0 383:0 384:0 385:0.1774 386:-0.0617 387:0.0785 388:0.0293 389:0.0176 390:0.0285 391:-0.0222 392:-0.0178 393:0.0266 394:0.1552 395:-0.0718 396:0.079 397:0.029 398:0.0208 399:0.0279 400:0.0207 401:-0.0143 402:0.0232 403:0.171 404:-0.0592 405:0.076 406:0.0323 407:0.0203 408:0.0298 409:-0.0225 410:-0.0195 411:0.0264 412:0.1714 413:-0.0605 414:0.0759 415:0.0296 416:0.0203 417:0.0251 418:-0.0246 419:-0.0196 420:0.0242 421:0.1402 422:-0.075 423:0.0819 424:0.0379 425:0.025 426:0.0297 427:0.0252 428:0.0112 429:-0.0119 430:0.1836 431:-0.0595 432:0.0754 433:0.0314 434:0.0177 435:0.0271 436:-0.0258 437:-0.0175 438:0.0267 439:0.154 440:-0.072 441:0.0808 442:0.0392 443:0.0241 444:0.0304 445:0.0281 446:0.0108 447:0.0161 448:0.1752 449:-0.0487 450:0.0538 451:0.0299 452:0.0211 453:0.0258 454:-0.0194 455:-0.02 456:0.0253 457:0.1482 458:-0.0615 459:0.0552 460:0.0307 461:0.0255 462:0.0331 463:0.0229 464:-0.0114 465:0.0277 466:0.1429 467:-0.0768 468:0.0837 469:0.0372 470:0.0235 471:0.0285 472:0.0292 473:0.0108 474:-0.0095 475:0.182 476:-0.0554 477:0.0685 478:0.0332 479:0.0183 480:0.0264 481:-0.0223 482:-0.0165 483:0.0241 484:0.1824 485:-0.0384 486:0.0329 487:0.0255 488:0.018 489:0.027 490:-0.0218 491:-0.0219 492:0.0287 493:0.182 494:-0.0269 495:0.0346 496:0.0264 497:0.0178 498:0.0241 499:-0.0241 500:-0.0199 501:0.0295 502:0.1677 503:-0.0541 504:0.0578 505:0.0376 506:0.0238 507:0.0297 508:-0.013 509:-0.0194 510:0.029 511:0.1433 512:-0.0682 513:0.0613 514:0.0334 515:0.024 516:0.0337 517:0.0304 518:-0.0167 519:0.0292 520:0.1737 521:-0.0532 522:0.0673 523:0.035 524:0.0204 525:0.028 526:-0.0233 527:-0.0202 528:0.0268 529:0.1967 530:-0.0267 531:0.0267 532:0.021 533:0.0062 534:0.0144 535:-0.0169 536:-0.0053 537:0.009 538:0.1902 539:-0.0261 540:0.0264 541:0.0257 542:0.0084 543:0.0169 544:-0.0225 545:-0.0098 546:0.0206 547:0.1783 548:-0.0401 549:0.0499 550:0.0318 551:0.0184 552:0.0266 553:-0.0268 554:-0.0204 555:0.0297 556:0.1762 557:-0.0521 558:0.0645 559:0.0328 560:0.0199 561:0.0288 562:-0.0258 563:-0.0209 564:0.03 565:0.187 566:-0.0424 567:0.0605 568:0.0268 569:0.0138 570:0.0228 571:-0.0261 572:-0.0133 573:0.024 574:0.1888 575:-0.0325 576:0.0484 577:0.0208 578:0.0086 579:0.0156 580:-0.016 581:-0.0079 582:0.0161 583:0.1883 584:-0.0287 585:0.0419 586:0.0229 587:0.0082 588:0.0163 589:-0.0194 590:-0.0092 591:0.0199 592:0.1825 593:-0.0323 594:0.0464 595:0.0272 596:0.0125 597:0.0217 598:-0.0224 599:-0.0138 600:0.0252 601:0.1664 602:-0.0539 603:0.0652 604:0.0303 605:0.021 606:0.0261 607:-0.0189 608:-0.0205 609:0.0252 610:0.0037 611:0.0418 612:0.0022 613:0.0127 614:0.1831 615:0.0064 616:0.025 617:0.4294 618:0.0236 619:0.0048 620:0.0287 621:0.0026 622:0.0123 623:0.1398 624:0.0132 625:0.0311 626:0.3046 627:0.0207 628:0.0034 629:0.0411 630:0.0024 631:0.0102 632:0.1151 633:0.0117 634:0.0488 635:0.109 636:0.0406 637:0.0076 638:0.045 639:0.0058 640:0.0249 641:0.1585 642:0.0277 643:0.0352 644:0.5673 645:0.0388 646:0.0122 647:0.0275 648:0.0073 649:0.0371 650:0.0811 651:0.0278 652:0.1146 653:0.221 654:0.0313 655:0.0074 656:0.0403 657:0.0064 658:0.0195 659:0.1479 660:0.0276 661:0.1203 662:0.1312 663:0.0543 664:0.0159 665:0.0389 666:0.0081 667:0.0299 668:0.1064 669:0.02 670:0.0609 671:0.2511 672:0.0386 673:0.018 674:0.0256 675:0.011 676:0.0423 677:0.0848 678:0.0324 679:0.079 680:0.0813 681:0.0375 682:0.016 683:0.0346 684:0.0104 685:0.0352 686:0.1019 687:0.0305 688:0.0724 689:0.1206 690:0.0753 
4 1:0.0574 2:0.0417 3:0.0366 4:0.036 5:0.0323 6:0.0311 7:0.0316 8:0.0406 9:0.1258 10:0.0754 11:0.0395 12:0.0324 13:0.031 14:0.0282 15:0.0418 16:0.0701 17:0.0843 18:0.0557 19:0.0372 20:0.0293 21:0.0521 22:0.0496 23:0.0537 24:0.0601 25:0.0426 26:0.028 27:0.0293 28:0.0344 29:0.0538 30:0.0511 31:0.0534 32:0.0541 33:0.0758 34:0.0384 35:0.0349 36:0.0434 37:0.0492 38:0.0632 39:0.0378 40:0.0426 41:0.1772 42:0.0776 43:0.061 44:0.0603 45:0.0644 46:0.0539 47:0.0338 48:0.0765 49:0.1607 50:0.0841 51:0.0443 52:0.0417 53:0.0743 54:0.0724 55:0.0571 56:0.0774 57:0.0681 58:0.0312 59:0.0356 60:0.0628 61:0.0889 62:0.0679 63:0.0462 64:0.0506 65:0.0685 66:0.0366 67:0.0289 68:0.0468 69:0.0579 70:0.0672 71:0.0354 72:0.0374 73:0.1701 74:0.0792 75:0.034 76:0.0442 77:0.0654 78:0.0731 79:0.0574 80:0.0767 81:0.1733 82:0.0737 83:0.0511 84:0.0619 85:0.0711 86:0.0539 87:0.0489 88:0.0821 89:0.0493 90:0.0469 91:0.0619 92:0.073 93:0.092 94:0.0598 95:0.0452 96:0.0289 97:0.0445 98:0.0425 99:0.031 100:0.032 101:0.0354 102:0.0443 103:0.0339 104:0.0311 105:0.1157 106:0.0659 107:0.0409 108:0.0314 109:0.0277 110:0.0433 111:0.0494 112:0.0607 113:0.0894 114:0.0786 115:0.0668 116:0.0567 117:0.0512 118:0.0334 119:0.0363 120:0.0455 121:0.0316 122:0.0537 123:0.0573 124:0.0457 125:0.0652 126:0.0406 127:0.0295 128:0.0278 129:0 130:0.0012 131:0.0055 132:0.0049 133:0 134:0.0004 135:0.0012 136:0.002 137:0 138:0.0004 139:0.0002 140:0 141:0 142:0.0002 143:0 144:0 145:0 146:0.0041 147:0.0319 148:0.0121 149:0.0008 150:0.0055 151:0.0063 152:0.001 153:0.0006 154:0.001 155:0 156:0 157:0.0002 158:0.0004 159:0 160:0 161:0.0004 162:0.0407 163:0.1527 164:0.0324 165:0.0045 166:0.0706 167:0.0074 168:0 169:0.0088 170:0.0025 171:0 172:0 173:0.0043 174:0 175:0 176:0 177:0.0006 178:0.0629 179:0.1231 180:0.0205 181:0.0096 182:0.0842 183:0.0184 184:0.0002 185:0.0238 186:0.0131 187:0.0006 188:0 189:0.0207 190:0.0008 191:0 192:0 193:0.0008 194:0.0141 195:0.0586 196:0.0057 197:0.002 198:0.0043 199:0.016 200:0.0023 201:0.0016 202:0.0016 203:0.0008 204:0 205:0.0057 206:0.0002 207:0 208:0 209:0.0002 210:0.0039 211:0.0119 212:0.0023 213:0 214:0 215:0 216:0 217:0 218:0 219:0 220:0 221:0.0004 222:0 223:0 224:0 225:0 226:0.002 227:0.0068 228:0.0018 229:0 230:0 231:0 232:0 233:0 234:0 235:0 236:0 237:0 238:0 239:0 240:0 241:0 242:0.002 243:0.0082 244:0.0043 245:0 246:0 247:0 248:0 249:0 250:0 251:0 252:0 253:0 254:0 255:0 256:0 257:0 258:0.0029 259:0.0154 260:0.0154 261:0 262:0 263:0 264:0 265:0 266:0 267:0 268:0 269:0 270:0 271:0 272:0 273:0 274:0.002 275:0.0063 276:0.0154 277:0 278:0 279:0 280:0 281:0 282:0 283:0 284:0 285:0 286:0 287:0 288:0 289:0 290:0.0002 291:0.0006 292:0 293:0 294:0 295:0 296:0 297:0 298:0 299:0 300:0 301:0 302:0 303:0 304:0 305:0 306:0 307:0.0002 308:0 309:0 310:0 311:0 312:0 313:0 314:0 315:0 316:0 317:0 318:0 319:0 320:0 321:0 322:0 323:0 324:0 325:0 326:0 327:0 328:0 329:0 330:0 331:0 332:0 333:0 334:0 335:0 336:0 337:0 338:0 339:0 340:0 341:0 342:0 343:0 344:0 345:0 346:0 347:0 348:0 349:0 350:0 351:0 352:0 353:0 354:0.0004 355:0 356:0 357:0 358:0 359:0 360:0 361:0 362:0 363:0 364:0 365:0 366:0 367:0 368:0 369:0 370:0 371:0.0002 372:0.0004 373:0 374:0 375:0 376:0 377:0 378:0 379:0 380:0 381:0 382:0 383:0 384:0 385:0.1851 386:-0.0272 387:0.0633 388:0.0267 389:0.0105 390:0.0267 391:-0.0196 392:-0.0089 393:0.0292 394:0.1839 395:-0.0207 396:0.0436 397:0.0275 398:0.0118 399:0.025 400:-0.0285 401:-0.0154 402:0.0301 403:0.192 404:-0.021 405:0.0305 406:0.0214 407:0.0073 408:0.0135 409:-0.017 410:-0.0081 411:0.0163 412:0.1829 413:-0.0268 414:0.0379 415:0.022 416:0.0096 417:0.0208 418:-0.0199 419:-0.0101 420:0.019 421:0.1713 422:-0.0282 423:0.0459 424:0.0287 425:0.0112 426:0.027 427:-0.0159 428:-0.0131 429:0.0254 430:0.1874 431:-0.0211 432:0.0506 433:0.0243 434:0.0116 435:0.0252 436:-0.018 437:-0.0121 438:0.0289 439:0.1914 440:-0.0129 441:0.0339 442:0.0186 443:0.0061 444:0.0142 445:-0.0163 446:-0.0071 447:0.0182 448:0.2018 449:-0.0125 450:0.0233 451:0.022 452:0.0069 453:0.0106 454:-0.0098 455:-0.0053 456:0.0088 457:0.1858 458:-0.0169 459:0.0286 460:0.0236 461:0.0086 462:0.0163 463:-0.0231 464:-0.0106 465:0.0215 466:0.1864 467:-0.0163 468:0.0284 469:0.0176 470:0.0051 471:0.011 472:-0.0163 473:-0.0049 474:0.0125 475:0.18 476:-0.0221 477:0.0433 478:0.0351 479:0.0142 480:0.0216 481:-0.0349 482:-0.0155 483:0.0262 484:0.1801 485:-0.0091 486:0.0236 487:0.0304 488:0.0109 489:0.0228 490:-0.0264 491:-0.0049 492:0.0289 493:0.1993 494:-0.007 495:0.0153 496:0.0302 497:0.0064 498:0.0151 499:-0.022 500:0.0052 501:0.0194 502:0.2021 503:-0.0076 504:0.0121 505:0.0321 506:0.0076 507:0.0199 508:-0.0267 509:-0.0107 510:0.0247 511:0.1722 512:-0.0175 513:0.0345 514:0.0319 515:0.0116 516:0.0221 517:-0.0284 518:-0.0146 519:0.0272 520:0.1968 521:-0.0104 522:0.0296 523:0.0249 524:0.0084 525:0.0165 526:-0.0275 527:-0.0098 528:0.0217 529:0.1951 530:-0.0096 531:0.0173 532:0.0214 533:0.0072 534:0.0148 535:-0.0146 536:-0.0086 537:0.0171 538:0.1898 539:-0.0108 540:0.0255 541:0.0269 542:0.0082 543:0.0183 544:-0.0252 545:-0.0098 546:0.0263 547:0.195 548:-0.0059 549:0.0212 550:0.0238 551:0.0058 552:0.0089 553:-0.0054 554:0.0054 555:0.0086 556:0.1964 557:-0.0096 558:0.0182 559:0.0176 560:0.0043 561:0.0069 562:-0.0138 563:-0.0036 564:0.0065 565:0.2069 566:-0.0074 567:0.0192 568:0.0203 569:0.0054 570:0.0084 571:-0.0111 572:-0.006 573:0.0064 574:0.1976 575:-0.0058 576:0.0189 577:0.0202 578:0.0053 579:0.01 580:-0.017 581:-0.0068 582:0.0122 583:0.2032 584:-0.0075 585:0.0159 586:0.0204 587:0.0058 588:0.0104 589:-0.0177 590:-0.0056 591:0.0112 592:0.2041 593:-0.0186 594:0.0236 595:0.0247 596:0.0102 597:0.013 598:-0.0257 599:-0.0088 600:0.017 601:0.2036 602:-0.0147 603:0.0173 604:0.0174 605:0.0073 606:0.0099 607:-0.013 608:-0.0061 609:0.0073 610:0.0121 611:0.0512 612:0.0106 613:0.0354 614:0.1125 615:0.03 616:0.0896 617:0.2591 618:0.0407 619:0.0089 620:0.0351 621:0.0092 622:0.0155 623:0.0825 624:0.0205 625:0.0408 626:0.1768 627:0.0255 628:0.0202 629:0.0206 630:0.0102 631:0.0544 632:0.0388 633:0.0306 634:0.3052 635:0.1007 636:0.0702 637:0.0255 638:0.0293 639:0.0138 640:0.0513 641:0.0653 642:0.0362 643:0.2909 644:0.1237 645:0.0603 646:0.0364 647:0.0268 648:0.0145 649:0.107 650:0.0812 651:0.044 652:0.414 653:0.1424 654:0.1473 655:0.0387 656:0.0188 657:0.0113 658:0.0806 659:0.0505 660:0.0391 661:0.3904 662:0.1805 663:0.0861 664:0.0265 665:0.0286 666:0.0149 667:0.0706 668:0.0849 669:0.0348 670:0.0813 671:0.1158 672:0.0352 673:0.0283 674:0.0356 675:0.0132 676:0.0754 677:0.0764 678:0.0434 679:0.2448 680:0.1101 681:0.0434 682:0.0292 683:0.0175 684:0.0101 685:0.0679 686:0.0588 687:0.0245 688:0.1135 689:0.2114 690:0.0307 
0.81767729153646018 1:0.0531 2:0.0359 3:0.0339 4:0.043 5:0.038 6:0.0275 7:0.0316 8:0.0434 9:0.123 10:0.0702 11:0.041 12:0.0356 13:0.0457 14:0.0364 15:0.0409 16:0.0688 17:0.1174 18:0.0649 19:0.0349 20:0.0379 21:0.0499 22:0.0408 23:0.0466 24:0.0792 25:0.0457 26:0.0361 27:0.033 28:0.05 29:0.062 30:0.0429 31:0.0474 32:0.045 33:0.0692 34:0.0525 35:0.0395 36:0.0466 37:0.0571 38:0.0501 39:0.0427 40:0.0368 41:0.1621 42:0.0744 43:0.0484 44:0.0601 45:0.0747 46:0.0488 47:0.0357 48:0.0722 49:0.183 50:0.0853 51:0.0387 52:0.0468 53:0.0688 54:0.0619 55:0.0479 56:0.0744 57:0.0626 58:0.0429 59:0.035 60:0.0534 61:0.0785 62:0.0677 63:0.0521 64:0.0456 65:0.0641 66:0.0473 67:0.0324 68:0.035 69:0.0564 70:0.0622 71:0.0531 72:0.0413 73:0.1602 74:0.0772 75:0.0301 76:0.0436 77:0.0693 78:0.0742 79:0.0524 80:0.0673 81:0.1806 82:0.0805 83:0.0479 84:0.0584 85:0.0625 86:0.0459 87:0.0386 88:0.0805 89:0.0672 90:0.0548 91:0.0442 92:0.0526 93:0.0728 94:0.067 95:0.0417 96:0.0386 97:0.0437 98:0.0321 99:0.027 100:0.0273 101:0.0452 102:0.0498 103:0.0412 104:0.0394 105:0.1152 106:0.0672 107:0.0331 108:0.0303 109:0.0407 110:0.0511 111:0.0453 112:0.0584 113:0.1193 114:0.075 115:0.0454 116:0.0386 117:0.0412 118:0.0383 119:0.0401 120:0.0585 121:0.0513 122:0.051 123:0.046 124:0.0391 125:0.0445 126:0.0431 127:0.0365 128:0.0355 129:0 130:0.0006 131:0.0063 132:0.0097 133:0 134:0.0001 135:0.0088 136:0.0106 137:0 138:0 139:0 140:0 141:0 142:0 143:0 144:0 145:0 146:0.0087 147:0.038 148:0.0265 149:0 150:0.0313 151:0.0595 152:0.0209 153:0.0006 154:0.0144 155:0.0026 156:0.0017 157:0.0061 158:0.0066 159:0.0001 160:0 161:0 162:0.0108 163:0.01 164:0.0075 165:0.0005 166:0.0376 167:0.0316 168:0.0045 169:0.0038 170:0.0652 171:0.0138 172:0.001 173:0.0337 174:0.1052 175:0.0017 176:0.0008 177:0 178:0.004 179:0.0018 180:0.0006 181:0.0003 182:0.0052 183:0.0389 184:0.0024 185:0.0003 186:0.0574 187:0.0236 188:0 189:0.0272 190:0.1779 191:0.0094 192:0 193:0 194:0.0005 195:0.001 196:0.0001 197:0.0001 198:0.0042 199:0.0073 200:0 201:0.0004 202:0.0043 203:0.0004 204:0 205:0.0033 206:0.0029 207:0 208:0 209:0 210:0.0004 211:0.0028 212:0.0001 213:0 214:0.001 215:0.0018 216:0 217:0 218:0 219:0 220:0 221:0 222:0 223:0 224:0 225:0 226:0.0001 227:0.0034 228:0.0001 229:0 230:0.0003 231:0.0009 232:0 233:0 234:0 235:0 236:0 237:0 238:0 239:0 240:0 241:0 242:0.0004 243:0.0017 244:0 245:0 246:0 247:0.0004 248:0 249:0 250:0 251:0 252:0 253:0 254:0 255:0 256:0 257:0 258:0 259:0.0001 260:0.0009 261:0 262:0 263:0 264:0 265:0 266:0 267:0 268:0 269:0 270:0 271:0 272:0 273:0 274:0.0001 275:0 276:0.0014 277:0 278:0 279:0 280:0 281:0 282:0 283:0 284:0 285:0 286:0 287:0 288:0 289:0 290:0.0001 291:0.0013 292:0.0023 293:0 294:0 295:0 296:0 297:0 298:0 299:0 300:0 301:0 302:0 303:0 304:0 305:0 306:0 307:0.0034 308:0.0037 309:0 310:0 311:0 312:0 313:0 314:0 315:0 316:0 317:0 318:0 319:0 320:0 321:0 322:0 323:0.0027 324:0.0026 325:0 326:0 327:0 328:0 329:0 330:0 331:0 332:0 333:0 334:0 335:0 336:0 337:0 338:0 339:0.0017 340:0.0028 341:0 342:0 343:0 344:0 345:0 346:0 347:0 348:0 349:0 350:0 351:0 352:0 353:0 354:0 355:0.0015 356:0.0019 357:0 358:0 359:0 360:0 361:0 362:0 363:0 364:0 365:0 366:0 367:0 368:0 369:0 370:0.0001 371:0.0022 372:0.0032 373:0 374:0 375:0 376:0 377:0 378:0 379:0 380:0 381:0 382:0 383:0 384:0 385:0.1715 386:-0.0274 387:0.0722 388:0.0252 389:0.0154 390:0.0302 391:-0.018 392:-0.0067 393:0.0278 394:0.1664 395:-0.0375 396:0.1099 397:0.0184 398:0.0117 399:0.0348 400:-0.0174 401:0.007 402:-0.02 403:0.1702 404:-0.037 405:0.1045 406:0.0226 407:0.0134 408:0.033 409:-0.0178 410:0.0087 411:-0.0101 412:0.1594 413:-0.0507 414:0.1256 415:0.0214 416:0.0085 417:0.0256 418:-0.0206 419:0.0051 420:-0.0201 421:0.1758 422:-0.035 423:0.0844 424:0.0239 425:0.0122 426:0.0346 427:-0.023 428:-0.0099 429:0.03 430:0.1667 431:-0.0475 432:0.0791 433:0.0226 434:0.0186 435:0.0461 436:-0.0059 437:-0.0101 438:-0.0136 439:0.1745 440:-0.0306 441:0.0891 442:0.0203 443:0.0112 444:0.0286 445:-0.0147 446:-0.0083 447:0.024 448:0.1645 449:-0.0377 450:0.1133 451:0.023 452:0.012 453:0.032 454:-0.017 455:0.0094 456:-0.0243 457:0.1681 458:-0.0283 459:0.0825 460:0.0284 461:0.0179 462:0.0485 463:0.019 464:0.0125 465:-0.0326 466:0.1785 467:-0.0193 468:0.0683 469:0.0208 470:0.0136 471:0.0278 472:-0.0171 473:-0.0117 474:0.0308 475:0.1702 476:-0.0193 477:0.0744 478:0.0214 479:0.0125 480:0.0321 481:-0.0185 482:-0.0117 483:0.0257 484:0.1631 485:-0.0165 486:0.0787 487:0.024 488:0.0178 489:0.0422 490:0.0154 491:-0.0203 492:0.0255 493:0.1651 494:-0.0096 495:0.0681 496:0.0325 497:0.0136 498:0.0425 499:0.021 500:-0.0075 501:0.0306 502:0.196 503:0.0002 504:0.0253 505:0.025 506:0.0059 507:0.0277 508:-0.0232 509:-0.0076 510:0.0289 511:0.1756 512:-0.008 513:0.0655 514:0.0226 515:0.0063 516:0.025 517:-0.0179 518:-0.0053 519:0.0271 520:0.1763 521:-0.0048 522:0.0621 523:0.0267 524:0.007 525:0.029 526:-0.017 527:-0.0065 528:0.03 529:0.1727 530:-0.0011 531:0.0565 532:0.0246 533:0.0101 534:0.0308 535:0.0092 536:0.0112 537:0.027 538:0.1816 539:0.0011 540:0.0371 541:0.0277 542:0.0081 543:0.0251 544:-0.0224 545:0.0042 546:0.0306 547:0.1949 548:0.0008 549:0.0389 550:0.0334 551:0.0063 552:0.0348 553:-0.0252 554:-0.0056 555:0.0298 556:0.1793 557:-0.0043 558:0.056 559:0.0271 560:0.0055 561:0.0332 562:-0.0196 563:-0.0043 564:0.0314 565:0.1905 566:-0.0006 567:0.0529 568:0.0237 569:0.0048 570:0.019 571:-0.0137 572:-0.005 573:0.0218 574:0.182 575:-0.0011 576:0.0416 577:0.018 578:0.005 579:0.0222 580:-0.0085 581:0.0047 582:0.0201 583:0.1939 584:0.0022 585:0.0379 586:0.0265 587:0.0043 588:0.0224 589:-0.023 590:0.0021 591:0.0254 592:0.1914 593:0.0002 594:0.0511 595:0.0216 596:0.0043 597:0.0182 598:-0.0095 599:0.0026 600:0.0196 601:0.1859 602:-0.0017 603:0.0548 604:0.0153 605:0.0029 606:0.0147 607:-0.0082 608:-0.0012 609:0.0162 610:0.0148 611:0.0167 612:0.0068 613:0.0518 614:0.0447 615:0.038 616:0.078 617:0.1083 618:0.0312 619:0.0115 620:0.0187 621:0.0064 622:0.0424 623:0.0587 624:0.0294 625:0.056 626:0.2541 627:0.0461 628:0.0106 629:0.0179 630:0.0056 631:0.0254 632:0.064 633:0.0314 634:0.0626 635:0.1083 636:0.0321 637:0.0185 638:0.0166 639:0.0067 640:0.0384 641:0.0308 642:0.0262 643:0.1172 644:0.144 645:0.0784 646:0.0206 647:0.0188 648:0.0074 649:0.0697 650:0.0903 651:0.0453 652:0.1038 653:0.5685 654:0.0893 655:0.0184 656:0.0137 657:0.0073 658:0.0454 659:0.0312 660:0.0257 661:0.2145 662:0.1967 663:0.0202 664:0.0239 665:0.0263 666:0.0118 667:0.0525 668:0.0532 669:0.0441 670:0.0947 671:0.1029 672:0.0464 673:0.0171 674:0.0226 675:0.0067 676:0.0476 677:0.0999 678:0.033 679:0.213 680:0.2448 681:0.0771 682:0.0253 683:0.0161 684:0.0096 685:0.0995 686:0.0557 687:0.049 688:0.4283 689:0.1556 690:0.0587 
